{"learner":{"attributes":{"scikit_learn":"{\"_estimator_type\": \"regressor\"}"},"feature_names":["demand_istdo","demand_indo","demand_indeem","temperature_2m","relative_humidity_2m","dew_point_2m","precipitation","rain","snowfall","cloud_cover","cloud_cover_low","cloud_cover_mid","cloud_cover_high","is_day","shortwave_radiation","direct_radiation","wind_speed_10m","wind_gusts_10m","wind_direction_10m","surface_pressure","weather_code_x","weather_code_y","shortwave_radiation_sum","precipitation_sum","rain_sum","snowfall_sum","precipitation_hours","temperature_2m_max","temperature_2m_min","Solar_intensity","IsWeekend","IsHoliday","IsWorkingDay","Hour_sin","Hour_cos","Day_sin","Day_cos","Month_sin","Month_cos","Year_sin","Year_cos","DayOfWeek_sin","DayOfWeek_cos","DayOfYear_sin","DayOfYear_cos"],"feature_types":["float","float","float","float","float","float","float","float","float","float","float","float","float","float","float","float","float","float","float","float","float","float","float","float","float","float","float","float","float","float","int","int","int","float","float","float","float","float","float","float","float","float","float","float","float"],"gradient_booster":{"model":{"gbtree_model_param":{"num_parallel_tree":"1","num_trees":"500"},"iteration_indptr":[0,1,2,3,4,5,6,7,8,9,10,11,12,13,14,15,16,17,18,19,20,21,22,23,24,25,26,27,28,29,30,31,32,33,34,35,36,37,38,39,40,41,42,43,44,45,46,47,48,49,50,51,52,53,54,55,56,57,58,59,60,61,62,63,64,65,66,67,68,69,70,71,72,73,74,75,76,77,78,79,80,81,82,83,84,85,86,87,88,89,90,91,92,93,94,95,96,97,98,99,100,101,102,103,104,105,106,107,108,109,110,111,112,113,114,115,116,117,118,119,120,121,122,123,124,125,126,127,128,129,130,131,132,133,134,135,136,137,138,139,140,141,142,143,144,145,146,147,148,149,150,151,152,153,154,155,156,157,158,159,160,161,162,163,164,165,166,167,168,169,170,171,172,173,174,175,176,177,178,179,180,181,182,183,184,185,186,187,188,189,190,191,192,193,194,195,196,197,198,199,200,201,202,203,204,205,206,207,208,209,210,211,212,213,214,215,216,217,218,219,220,221,222,223,224,225,226,227,228,229,230,231,232,233,234,235,236,237,238,239,240,241,242,243,244,245,246,247,248,249,250,251,252,253,254,255,256,257,258,259,260,261,262,263,264,265,266,267,268,269,270,271,272,273,274,275,276,277,278,279,280,281,282,283,284,285,286,287,288,289,290,291,292,293,294,295,296,297,298,299,300,301,302,303,304,305,306,307,308,309,310,311,312,313,314,315,316,317,318,319,320,321,322,323,324,325,326,327,328,329,330,331,332,333,334,335,336,337,338,339,340,341,342,343,344,345,346,347,348,349,350,351,352,353,354,355,356,357,358,359,360,361,362,363,364,365,366,367,368,369,370,371,372,373,374,375,376,377,378,379,380,381,382,383,384,385,386,387,388,389,390,391,392,393,394,395,396,397,398,399,400,401,402,403,404,405,406,407,408,409,410,411,412,413,414,415,416,417,418,419,420,421,422,423,424,425,426,427,428,429,430,431,432,433,434,435,436,437,438,439,440,441,442,443,444,445,446,447,448,449,450,451,452,453,454,455,456,457,458,459,460,461,462,463,464,465,466,467,468,469,470,471,472,473,474,475,476,477,478,479,480,481,482,483,484,485,486,487,488,489,490,491,492,493,494,495,496,497,498,499,500],"tree_info":[0,0,0,0,0,0,0,0,0,0,0,0,0,0,0,0,0,0,0,0,0,0,0,0,0,0,0,0,0,0,0,0,0,0,0,0,0,0,0,0,0,0,0,0,0,0,0,0,0,0,0,0,0,0,0,0,0,0,0,0,0,0,0,0,0,0,0,0,0,0,0,0,0,0,0,0,0,0,0,0,0,0,0,0,0,0,0,0,0,0,0,0,0,0,0,0,0,0,0,0,0,0,0,0,0,0,0,0,0,0,0,0,0,0,0,0,0,0,0,0,0,0,0,0,0,0,0,0,0,0,0,0,0,0,0,0,0,0,0,0,0,0,0,0,0,0,0,0,0,0,0,0,0,0,0,0,0,0,0,0,0,0,0,0,0,0,0,0,0,0,0,0,0,0,0,0,0,0,0,0,0,0,0,0,0,0,0,0,0,0,0,0,0,0,0,0,0,0,0,0,0,0,0,0,0,0,0,0,0,0,0,0,0,0,0,0,0,0,0,0,0,0,0,0,0,0,0,0,0,0,0,0,0,0,0,0,0,0,0,0,0,0,0,0,0,0,0,0,0,0,0,0,0,0,0,0,0,0,0,0,0,0,0,0,0,0,0,0,0,0,0,0,0,0,0,0,0,0,0,0,0,0,0,0,0,0,0,0,0,0,0,0,0,0,0,0,0,0,0,0,0,0,0,0,0,0,0,0,0,0,0,0,0,0,0,0,0,0,0,0,0,0,0,0,0,0,0,0,0,0,0,0,0,0,0,0,0,0,0,0,0,0,0,0,0,0,0,0,0,0,0,0,0,0,0,0,0,0,0,0,0,0,0,0,0,0,0,0,0,0,0,0,0,0,0,0,0,0,0,0,0,0,0,0,0,0,0,0,0,0,0,0,0,0,0,0,0,0,0,0,0,0,0,0,0,0,0,0,0,0,0,0,0,0,0,0,0,0,0,0,0,0,0,0,0,0,0,0,0,0,0,0,0,0,0,0,0,0,0,0,0,0,0,0,0,0,0,0,0,0,0,0,0,0,0,0,0,0,0,0,0,0,0,0,0,0,0,0,0,0,0,0,0,0,0,0,0,0,0,0,0,0,0,0,0,0,0,0,0,0,0,0,0,0,0,0,0,0,0,0],"trees":[{"base_weights":[1.2790115E-1,4.058812E1,-7.191979E0,3.8570593E2,3.4732887E1,-6.264665E-1,-3.589315E1,1.0389891E2,3.665933E1,4.232252E1,2.000721E1,1.0155685E1,-6.396545E0,-2.1095915E1,-4.9531105E1,1.2436484E2,1.469012E1,5.7310993E1,3.713985E1,3.0369127E1,6.9346943E0,1.613456E1,-9.3839515E-4,-1.0413455E0,-1.661053E1,-1.0308673E1,-3.516854E1,-2.008108E1,-6.4455734E1,1.3172943E2,1.8203169E0,8.9144194E-1,2.1031705E-1,7.6132256E1,5.0126217E1,2.8508705E1,4.3254543E1,4.1394505E1,2.5227936E1,1.0052811E1,-2.0759167E1,1.783903E1,-7.8203316E0,-3.305617E0,9.265566E0,-3.5265493E0,8.469685E0,-1.5493496E1,-7.5014694E1,-6.7353325E0,-3.598422E1,-5.214287E1,-1.7523172E1,-8.453722E0,-3.869751E1,-6.797048E1,-3.1684399E1,8.087163E0,3.439163E0,2.7993596E0,5.1231995E0,2.352533E0,4.984737E0,2.1302543E0,1.3009626E0,3.661242E0,1.857482E0,2.3825586E0,1.7606453E0,1.3412855E0,5.2648157E-1,7.870652E-1,1.6334893E-1,-1.2563276E-1,-1.8205391E0,1.1340317E0,6.652321E-1,6.107908E-1,-1.8786885E0,2.795466E-3,-8.583708E-1,2.5710043E-1,8.874592E-1,-2.2016652E0,-1.5116785E-1,6.9900453E-1,1.2494906E-1,-5.4520667E-1,-1.52211E0,-4.4435916E0,-2.1483707E-1,-2.07239E0,-2.1184778E-1,-4.615064E0,-1.0025376E0,-1.7682953E0,-3.0191762E0,-4.5426098E-1,-2.408861E0,-1.9131279E-1,-1.9790543E0,-6.2445575E-1,-2.4792147E0,-3.9446752E0,-3.0289347E0,-9.6965456E-1,-2.549665E0],"categories":[],"categories_nodes":[],"categories_segments":[],"categories_sizes":[],"default_left":[0,0,0,0,0,0,0,0,0,0,0,0,0,0,0,0,0,0,0,0,0,0,0,0,0,0,0,0,0,0,0,0,0,0,0,0,0,0,0,0,0,0,0,0,0,0,0,0,0,0,0,0,0,0,0,0,0,0,0,0,0,0,0,0,0,0,0,0,0,0,0,0,0,0,0,0,0,0,0,0,0,0,0,0,0,0,0,0,0,0,0,0,0,0,0,0,0,0,0,0,0,0,0,0,0,0,0],"id":0,"left_children":[1,3,5,7,9,11,13,15,-1,17,19,21,23,25,27,29,31,33,35,37,39,41,43,45,47,49,51,53,55,57,-1,-1,-1,59,61,63,65,67,69,71,73,75,77,79,81,83,85,87,89,91,93,95,97,99,101,103,105,-1,-1,-1,-1,-1,-1,-1,-1,-1,-1,-1,-1,-1,-1,-1,-1,-1,-1,-1,-1,-1,-1,-1,-1,-1,-1,-1,-1,-1,-1,-1,-1,-1,-1,-1,-1,-1,-1,-1,-1,-1,-1,-1,-1,-1,-1,-1,-1,-1,-1],"loss_changes":[1.8655325E6,1.9366232E6,1.0051052E6,1.4905825E6,1.05327625E5,2.7019753E5,1.9934662E5,1.6430477E4,0E0,4.6499375E4,4.3812703E4,9.193794E4,1.5472312E5,7.220017E4,2.2550362E5,3.864375E2,2.3722656E1,1.7684844E4,2.3466312E4,9.2154375E3,1.2729826E4,3.9050875E4,1.7240652E4,4.3923496E4,6.2315812E4,2.471295E4,6.108658E4,3.7553344E4,3.7238875E4,2.0995625E3,0E0,0E0,0E0,1.6542406E4,1.3298469E4,5.804625E3,4.7046438E4,4.879297E2,2.6765938E3,5.005325E3,4.1923237E3,1.9237062E4,3.8612227E4,1.9338633E4,5.086172E3,2.9890574E4,1.2631951E4,6.5254453E4,1.7257219E4,2.0638346E4,2.7761047E4,1.23810625E4,2.620401E4,1.5549004E4,1.8497516E4,2.008875E4,7.3176875E3,0E0,0E0,0E0,0E0,0E0,0E0,0E0,0E0,0E0,0E0,0E0,0E0,0E0,0E0,0E0,0E0,0E0,0E0,0E0,0E0,0E0,0E0,0E0,0E0,0E0,0E0,0E0,0E0,0E0,0E0,0E0,0E0,0E0,0E0,0E0,0E0,0E0,0E0,0E0,0E0,0E0,0E0,0E0,0E0,0E0,0E0,0E0,0E0,0E0,0E0],"parents":[2147483647,0,0,1,1,2,2,3,3,4,4,5,5,6,6,7,7,9,9,10,10,11,11,12,12,13,13,14,14,15,15,16,16,17,17,18,18,19,19,20,20,21,21,22,22,23,23,24,24,25,25,26,26,27,27,28,28,29,29,33,33,34,34,35,35,36,36,37,37,38,38,39,39,40,40,41,41,42,42,43,43,44,44,45,45,46,46,47,47,48,48,49,49,50,50,51,51,52,52,53,53,54,54,55,55,56,56],"right_children":[2,4,6,8,10,12,14,16,-1,18,20,22,24,26,28,30,32,34,36,38,40,42,44,46,48,50,52,54,56,58,-1,-1,-1,60,62,64,66,68,70,72,74,76,78,80,82,84,86,88,90,92,94,96,98,100,102,104,106,-1,-1,-1,-1,-1,-1,-1,-1,-1,-1,-1,-1,-1,-1,-1,-1,-1,-1,-1,-1,-1,-1,-1,-1,-1,-1,-1,-1,-1,-1,-1,-1,-1,-1,-1,-1,-1,-1,-1,-1,-1,-1,-1,-1,-1,-1,-1,-1,-1,-1],"split_conditions":[-2.1088236E4,-7.5E-1,3.8007382E-1,8.3E-1,7.295576E-1,-1.7345637E4,5.383029E-1,9.594095E-2,3.665933E1,-8.878852E-1,4.3386725E-1,6.152652E-1,2.4723245E-1,1.3E1,-6.3108796E-1,-2.4210975E4,-2.5155451E4,1.7343174E-1,3.1310704E-1,-2.408624E4,5.1010734E-1,1.7E1,3.872228E-2,3.872228E-2,9.8867756E-1,-1.5581189E4,0E0,7.288823E-1,9.025161E-2,8.1568426E-1,1.8203169E0,8.9144194E-1,2.1031705E-1,1.35E0,1.492E1,9.963099E-2,3.7770796E-1,-4.4039416E-1,5.925926E-1,5.181413E-1,-2.5065252E-1,-1.8692703E4,-1.3616665E-1,3.210332E-1,7.8662235E-1,-1E-1,4.107744E-1,4.899999E0,3.02583E-1,2.3888496E-1,-8.660254E-1,-1.7840516E4,-1.6232738E4,6.0473126E-1,4.2066416E-1,1E0,8.3885616E-1,8.087163E0,3.439163E0,2.7993596E0,5.1231995E0,2.352533E0,4.984737E0,2.1302543E0,1.3009626E0,3.661242E0,1.857482E0,2.3825586E0,1.7606453E0,1.3412855E0,5.2648157E-1,7.870652E-1,1.6334893E-1,-1.2563276E-1,-1.8205391E0,1.1340317E0,6.652321E-1,6.107908E-1,-1.8786885E0,2.795466E-3,-8.583708E-1,2.5710043E-1,8.874592E-1,-2.2016652E0,-1.5116785E-1,6.9900453E-1,1.2494906E-1,-5.4520667E-1,-1.52211E0,-4.4435916E0,-2.1483707E-1,-2.07239E0,-2.1184778E-1,-4.615064E0,-1.0025376E0,-1.7682953E0,-3.0191762E0,-4.5426098E-1,-2.408861E0,-1.9131279E-1,-1.9790543E0,-6.2445575E-1,-2.4792147E0,-3.9446752E0,-3.0289347E0,-9.6965456E-1,-2.549665E0],"split_indices":[2,27,17,9,43,2,18,17,0,33,29,29,17,26,33,2,2,17,43,2,16,26,44,44,43,2,41,29,44,4,0,0,0,28,22,17,43,36,5,18,36,2,33,17,19,28,5,24,17,19,37,2,2,16,17,32,4,0,0,0,0,0,0,0,0,0,0,0,0,0,0,0,0,0,0,0,0,0,0,0,0,0,0,0,0,0,0,0,0,0,0,0,0,0,0,0,0,0,0,0,0,0,0,0,0,0,0],"split_type":[0,0,0,0,0,0,0,0,0,0,0,0,0,0,0,0,0,0,0,0,0,0,0,0,0,0,0,0,0,0,0,0,0,0,0,0,0,0,0,0,0,0,0,0,0,0,0,0,0,0,0,0,0,0,0,0,0,0,0,0,0,0,0,0,0,0,0,0,0,0,0,0,0,0,0,0,0,0,0,0,0,0,0,0,0,0,0,0,0,0,0,0,0,0,0,0,0,0,0,0,0,0,0,0,0,0,0],"sum_hessian":[6.297E3,9.64E2,5.333E3,1.5E1,9.49E2,4.341E3,9.92E2,9E0,6E0,6.25E2,3.24E2,1.513E3,2.828E3,4.77E2,5.15E2,7E0,2E0,1.58E2,4.67E2,1.8E2,1.44E2,9.52E2,5.61E2,1.856E3,9.72E2,2.71E2,2.06E2,1.74E2,3.41E2,6E0,1E0,1E0,1E0,4.1E1,1.17E2,1.96E2,2.71E2,5.5E1,1.25E2,1.3E2,1.4E1,8.89E2,6.3E1,4.14E2,1.47E2,1.472E3,3.84E2,9.55E2,1.7E1,2.39E2,3.2E1,1.04E2,1.02E2,1.08E2,6.6E1,3.07E2,3.4E1,3E0,3E0,2.5E1,1.6E1,1.12E2,5E0,2.7E1,1.69E2,4.4E1,2.27E2,2.4E1,3.1E1,1.12E2,1.3E1,7E1,6E1,7E0,7E0,4.28E2,4.61E2,3.8E1,2.5E1,3.34E2,8E1,1E2,4.7E1,1.7E1,1.455E3,1.99E2,1.85E2,7.32E2,2.23E2,1.4E1,3E0,1.5E1,2.24E2,6E0,2.6E1,3.6E1,6.8E1,8.1E1,2.1E1,9.5E1,1.3E1,2E1,4.6E1,1.2E2,1.87E2,2.2E1,1.2E1],"tree_param":{"num_deleted":"0","num_feature":"45","num_nodes":"107","size_leaf_vector":"1"}},{"base_weights":[9.417915E-2,3.8725555E1,-6.850314E0,3.696149E2,3.3046154E1,-4.4738373E-1,-3.4090855E1,1.001488E2,3.508822E1,2.4053242E1,4.0340076E1,1.0063056E1,-6.0798283E0,-1.954631E1,-4.7596867E1,1.19814926E2,1.43228655E1,1.0758233E1,3.1624517E1,4.740175E1,2.9790861E1,4.226707E-1,1.5314695E1,-9.432746E-1,-1.6028553E1,-8.184582E0,-3.3349762E1,-1.685856E1,-6.134409E1,1.2678958E2,1.7748089E0,8.691559E-1,2.0505905E-1,2.0936886E1,1.2007372E0,7.539815E1,2.9287233E1,4.0124252E1,8.0148705E1,4.080717E1,2.5112288E1,-5.8264523E0,1.136454E1,1.7409819E1,1.9829445E0,-3.1834407E0,8.995296E0,-1.1582394E1,-3.0789701E1,-5.058021E0,-3.491469E1,-4.9133583E1,-1.6221672E1,-4.0257004E1,-8.138642E0,-6.507036E1,-2.8910015E1,7.7838945E0,3.3101945E0,9.3526375E-1,2.7935822E0,3.2580683E-1,-8.8825846E-1,3.8960585E-1,5.2289743E0,1.5917448E0,5.189569E-1,1.4950912E0,2.438692E0,4.8338876E0,2.5480344E0,2.2387733E0,1.135537E0,1.5220627E0,8.837657E-1,-5.3765427E-2,-9.760707E-1,8.2102203E-1,2.3042133E-1,1.1599501E0,6.9427025E-1,2.1540742E-1,-2.9201953E0,2.3593298E-1,-2.4244125E-1,-2.9977327E-2,5.9033555E-1,-1.2735298E0,-3.2903716E-1,-3.0269105E0,-1.1504304E0,-9.9846965E-1,-3.343739E-2,-2.731245E-1,-2.8331218E0,-1.5837026E0,-2.8723292E0,-3.743389E-1,-2.305895E0,-6.5670085E-1,-2.8423998E0,-1.1117311E-1,-1.4215401E0,-2.9008245E0,-3.7614384E0,-8.075078E-1,-2.2236383E0],"categories":[],"categories_nodes":[],"categories_segments":[],"categories_sizes":[],"default_left":[0,0,0,0,0,0,0,0,0,0,0,0,0,0,0,0,0,0,0,0,0,0,0,0,0,0,0,0,0,0,0,0,0,0,0,0,0,0,0,0,0,0,0,0,0,0,0,0,0,0,0,0,0,0,0,0,0,0,0,0,0,0,0,0,0,0,0,0,0,0,0,0,0,0,0,0,0,0,0,0,0,0,0,0,0,0,0,0,0,0,0,0,0,0,0,0,0,0,0,0,0,0,0,0,0,0,0],"id":1,"left_children":[1,3,5,7,9,11,13,15,-1,17,19,21,23,25,27,29,31,33,35,37,39,41,43,45,47,49,51,53,55,57,-1,-1,-1,59,61,63,65,67,69,71,73,75,77,79,81,83,85,87,89,91,93,95,97,99,101,103,105,-1,-1,-1,-1,-1,-1,-1,-1,-1,-1,-1,-1,-1,-1,-1,-1,-1,-1,-1,-1,-1,-1,-1,-1,-1,-1,-1,-1,-1,-1,-1,-1,-1,-1,-1,-1,-1,-1,-1,-1,-1,-1,-1,-1,-1,-1,-1,-1,-1,-1],"loss_changes":[1.6796688E6,1.7805925E6,9.256278E5,1.361767E6,6.0622E4,2.5450052E5,1.9747288E5,1.5162539E4,0E0,4.223903E4,3.7101812E4,7.5935266E4,1.4301986E5,7.626059E4,2.19968E5,2.0421094E2,2.2551453E1,1.5053639E4,2.5313531E4,7.0185375E4,9.798781E3,3.630607E4,2.708711E4,4.1150332E4,6.2189125E4,2.230462E4,5.867922E4,3.2929656E4,4.1748625E4,1.9450469E3,0E0,0E0,0E0,4.801961E3,8.28148E3,2.4831953E4,1.2049656E4,2.1000219E4,2.1608E4,3.3636562E3,5.4066406E3,2.1971562E4,6.516867E3,1.6796406E4,1.8926375E4,1.9868215E4,9.178609E3,5.081892E4,4.9531812E4,1.5825564E4,1.7625012E4,1.47265E4,2.7596752E4,1.9053242E4,1.43406E4,1.87805E4,7.0263164E3,0E0,0E0,0E0,0E0,0E0,0E0,0E0,0E0,0E0,0E0,0E0,0E0,0E0,0E0,0E0,0E0,0E0,0E0,0E0,0E0,0E0,0E0,0E0,0E0,0E0,0E0,0E0,0E0,0E0,0E0,0E0,0E0,0E0,0E0,0E0,0E0,0E0,0E0,0E0,0E0,0E0,0E0,0E0,0E0,0E0,0E0,0E0,0E0,0E0,0E0],"parents":[2147483647,0,0,1,1,2,2,3,3,4,4,5,5,6,6,7,7,9,9,10,10,11,11,12,12,13,13,14,14,15,15,16,16,17,17,18,18,19,19,20,20,21,21,22,22,23,23,24,24,25,25,26,26,27,27,28,28,29,29,33,33,34,34,35,35,36,36,37,37,38,38,39,39,40,40,41,41,42,42,43,43,44,44,45,45,46,46,47,47,48,48,49,49,50,50,51,51,52,52,53,53,54,54,55,55,56,56],"right_children":[2,4,6,8,10,12,14,16,-1,18,20,22,24,26,28,30,32,34,36,38,40,42,44,46,48,50,52,54,56,58,-1,-1,-1,60,62,64,66,68,70,72,74,76,78,80,82,84,86,88,90,92,94,96,98,100,102,104,106,-1,-1,-1,-1,-1,-1,-1,-1,-1,-1,-1,-1,-1,-1,-1,-1,-1,-1,-1,-1,-1,-1,-1,-1,-1,-1,-1,-1,-1,-1,-1,-1,-1,-1,-1,-1,-1,-1,-1,-1,-1,-1,-1,-1,-1,-1,-1,-1,-1,-1],"split_conditions":[-2.1088236E4,-7.5E-1,3.7638372E-1,8.3E-1,7.266075E-1,-1.7345637E4,5.383029E-1,9.594095E-2,3.508822E1,-3.348796E-1,9.5237756E-1,-3.348796E-1,2.509225E-1,1.3E1,-6.3108796E-1,-2.4210975E4,-2.5155451E4,-6.1210597E-1,-3.6572254E-1,9.291414E-1,-8.169699E-1,2.1516098E-2,3.173432E-1,1.4154029E-1,4.899999E0,-1.5581189E4,0E0,-3.348796E-1,9.025161E-2,8.1568426E-1,1.7748089E0,8.691559E-1,2.0505905E-1,4.7891566E-1,3.6900368E-1,4.7776714E-1,5E0,6.508334E-1,-2.4210975E4,9.377521E-1,2E0,3.02583E-1,5.350383E-1,-1.907729E4,9.994074E-1,-3.9840108E-1,-5E-1,4.8647174E-1,6.2000003E0,5.0263953E-1,4.9698794E-1,-1.7840516E4,-1.613039E4,4.1697416E-1,5.276753E-1,1E0,-2.4492937E-16,7.7838945E0,3.3101945E0,9.3526375E-1,2.7935822E0,3.2580683E-1,-8.8825846E-1,3.8960585E-1,5.2289743E0,1.5917448E0,5.189569E-1,1.4950912E0,2.438692E0,4.8338876E0,2.5480344E0,2.2387733E0,1.135537E0,1.5220627E0,8.837657E-1,-5.3765427E-2,-9.760707E-1,8.2102203E-1,2.3042133E-1,1.1599501E0,6.9427025E-1,2.1540742E-1,-2.9201953E0,2.3593298E-1,-2.4244125E-1,-2.9977327E-2,5.9033555E-1,-1.2735298E0,-3.2903716E-1,-3.0269105E0,-1.1504304E0,-9.9846965E-1,-3.343739E-2,-2.731245E-1,-2.8331218E0,-1.5837026E0,-2.8723292E0,-3.743389E-1,-2.305895E0,-6.5670085E-1,-2.8423998E0,-1.1117311E-1,-1.4215401E0,-2.9008245E0,-3.7614384E0,-8.075078E-1,-2.2236383E0],"split_indices":[2,27,17,9,44,2,18,17,0,34,44,34,17,26,33,2,2,36,44,44,33,44,17,44,24,2,41,34,44,4,0,0,0,3,17,19,24,19,2,35,26,17,18,2,44,33,37,4,23,4,3,2,2,17,17,30,33,0,0,0,0,0,0,0,0,0,0,0,0,0,0,0,0,0,0,0,0,0,0,0,0,0,0,0,0,0,0,0,0,0,0,0,0,0,0,0,0,0,0,0,0,0,0,0,0,0,0],"split_type":[0,0,0,0,0,0,0,0,0,0,0,0,0,0,0,0,0,0,0,0,0,0,0,0,0,0,0,0,0,0,0,0,0,0,0,0,0,0,0,0,0,0,0,0,0,0,0,0,0,0,0,0,0,0,0,0,0,0,0,0,0,0,0,0,0,0,0,0,0,0,0,0,0,0,0,0,0,0,0,0,0,0,0,0,0,0,0,0,0,0,0,0,0,0,0,0,0,0,0,0,0,0,0,0,0,0,0],"sum_hessian":[6.259E3,9.53E2,5.306E3,1.5E1,9.38E2,4.297E3,1.009E3,9E0,6E0,4.22E2,5.16E2,1.499E3,2.798E3,4.87E2,5.22E2,7E0,2E0,1.54E2,2.68E2,3.07E2,2.09E2,5.29E2,9.7E2,1.846E3,9.52E2,2.68E2,2.19E2,1.62E2,3.6E2,6E0,1E0,1E0,1E0,7.4E1,8E1,1.2E1,2.56E2,2.53E2,5.4E1,6E1,1.49E2,3.37E2,1.92E2,8.38E2,1.32E2,1.507E3,3.39E2,7.33E2,2.19E2,2.41E2,2.7E1,1.13E2,1.06E2,4.3E1,1.19E2,3.22E2,3.8E1,3E0,3E0,7.1E1,3E0,6.3E1,1.7E1,4E0,8E0,2.25E2,3.1E1,1.18E2,1.35E2,3.3E1,2.1E1,4.8E1,1.2E1,8.5E1,6.4E1,2.51E2,8.6E1,1.09E2,8.3E1,3.15E2,5.23E2,1.28E2,4E0,2.62E2,1.245E3,7.7E1,2.62E2,1.93E2,5.4E2,4.4E1,1.75E2,5.4E1,1.87E2,1.2E1,1.5E1,3.8E1,7.5E1,8.3E1,2.3E1,1.7E1,2.6E1,9.3E1,2.6E1,1.94E2,1.28E2,2.2E1,1.6E1],"tree_param":{"num_deleted":"0","num_feature":"45","num_nodes":"107","size_leaf_vector":"1"}},{"base_weights":[1.4370808E-1,-1.2775489E1,2.23785E1,-4.759397E0,-3.586688E1,2.439122E2,2.0439861E1,-1.1120832E1,3.3610816E0,-5.0406807E1,-1.9514204E1,6.169522E1,3.2940132E1,1.3717213E1,3.7636913E1,-6.068233E0,-2.170489E1,-1.7626371E1,4.2664995E0,-3.8511024E1,-6.2292133E1,-2.8555252E1,-4.1714773E0,8.486031E0,1.21293434E2,1.6794376E1,2.2549264E0,3.2261913E1,5.0434464E1,-1.7461824E1,-4.9028687E0,-1.9621534E1,-8.056913E1,-3.052835E0,-6.368191E0,1.0528443E1,2.7958004E0,-2.8805204E1,-5.072678E1,-4.523424E1,-6.748008E1,-1.9448458E1,-3.9009617E1,-7.5398173E0,1.6199003E1,-9.954884E0,1.7012948E0,1.7304386E0,6.4986377E0,1.2732789E1,2.1180016E1,-2.4718807E0,1.4836257E1,3.1410896E1,6.0393524E0,8.749816E1,4.3169804E1,-3.8609695E-2,-2.517109E0,-5.5446703E-2,-4.0216342E-1,-7.2485155E-1,-1.9271786E0,-4.2602E0,-4.44088E-2,4.181734E-1,-1.6335655E0,4.1036597E-1,8.696025E-1,6.316819E-2,4.185725E-1,-2.588786E0,-9.616664E-1,-1.0095848E0,-3.0117927E0,-7.068269E-1,-2.7867372E0,-2.1056235E0,-3.546475E0,-1.9989064E-1,-1.3362116E0,-1.1681246E0,-2.6632495E0,-8.276849E-1,-1.0030225E-2,-2.7493593E-1,9.118131E-1,-8.933162E-1,1.9559988E-1,8.969433E-1,5.409448E-1,3.957237E0,1.0102323E0,7.03973E-2,-1.0861651E0,2.74774E-1,1.1485182E0,1.7046951E0,1.1195647E0,5.001956E0,1.6000435E0,1.6789185E0,2.393705E0],"categories":[],"categories_nodes":[],"categories_segments":[],"categories_sizes":[],"default_left":[0,0,0,0,0,0,0,0,0,0,0,0,0,0,0,0,0,0,0,0,0,0,0,0,0,0,0,0,0,0,0,0,0,0,0,0,0,0,0,0,0,0,0,0,0,0,0,0,0,0,0,0,0,0,0,0,0,0,0,0,0,0,0,0,0,0,0,0,0,0,0,0,0,0,0,0,0,0,0,0,0,0,0,0,0,0,0,0,0,0,0,0,0,0,0,0,0,0,0,0,0,0,0],"id":2,"left_children":[1,3,5,7,9,11,13,15,17,19,21,23,-1,25,27,29,31,33,35,37,39,41,43,45,47,49,51,53,55,57,59,61,63,-1,65,67,69,71,73,75,77,79,81,83,85,87,-1,-1,-1,89,91,93,95,97,-1,99,101,-1,-1,-1,-1,-1,-1,-1,-1,-1,-1,-1,-1,-1,-1,-1,-1,-1,-1,-1,-1,-1,-1,-1,-1,-1,-1,-1,-1,-1,-1,-1,-1,-1,-1,-1,-1,-1,-1,-1,-1,-1,-1,-1,-1,-1,-1],"loss_changes":[1.8102839E6,7.376487E5,9.896756E5,1.5294478E5,2.4320275E5,1.4713565E6,2.6503938E5,8.864011E4,2.4797344E4,7.437325E4,6.715734E4,4.6538297E4,0E0,5.8265625E4,4.2740312E4,1.4851773E4,6.415153E4,2.6014287E4,1.1463936E4,3.1025281E4,2.0841312E4,2.8279078E4,1.2541398E4,4.57753E3,7.6834375E2,2.2940188E4,2.0910477E4,3.063475E4,4.7112E4,5.7032266E4,1.2167666E4,4.9766594E4,6.571914E3,0E0,1.7322746E4,3.6329727E3,8.636285E3,3.308418E4,3.362697E4,2.0763844E4,1.495125E4,1.84417E4,3.0206438E4,1.0316827E4,1.2495752E3,7.2813495E2,0E0,0E0,0E0,6.5713984E3,3.3736562E4,1.9151781E4,7.1677383E3,1.022325E4,0E0,1.7678344E4,5.6118125E3,0E0,0E0,0E0,0E0,0E0,0E0,0E0,0E0,0E0,0E0,0E0,0E0,0E0,0E0,0E0,0E0,0E0,0E0,0E0,0E0,0E0,0E0,0E0,0E0,0E0,0E0,0E0,0E0,0E0,0E0,0E0,0E0,0E0,0E0,0E0,0E0,0E0,0E0,0E0,0E0,0E0,0E0,0E0,0E0,0E0,0E0],"parents":[2147483647,0,0,1,1,2,2,3,3,4,4,5,5,6,6,7,7,8,8,9,9,10,10,11,11,13,13,14,14,15,15,16,16,17,17,18,18,19,19,20,20,21,21,22,22,23,23,24,24,25,25,26,26,27,27,28,28,29,29,30,30,31,31,32,32,34,34,35,35,36,36,37,37,38,38,39,39,40,40,41,41,42,42,43,43,44,44,45,45,49,49,50,50,51,51,52,52,53,53,55,55,56,56],"right_children":[2,4,6,8,10,12,14,16,18,20,22,24,-1,26,28,30,32,34,36,38,40,42,44,46,48,50,52,54,56,58,60,62,64,-1,66,68,70,72,74,76,78,80,82,84,86,88,-1,-1,-1,90,92,94,96,98,-1,100,102,-1,-1,-1,-1,-1,-1,-1,-1,-1,-1,-1,-1,-1,-1,-1,-1,-1,-1,-1,-1,-1,-1,-1,-1,-1,-1,-1,-1,-1,-1,-1,-1,-1,-1,-1,-1,-1,-1,-1,-1,-1,-1,-1,-1,-1,-1],"split_conditions":[2.8278E4,3.4317344E-1,-7.5E-1,2.4493E4,2.44505E4,8.3E-1,3.611E4,2.4723245E-1,3.5817453E-1,4.3173432E-1,5.533848E-1,1.7E-1,3.2940132E1,3.5793355E-1,4.12515E4,1.165E1,9.922222E-1,-9.307239E-1,3.6596385E-1,4.3999996E0,5.082254E-1,5.451335E-1,6.648554E-1,1E-2,3.9346E4,3.096E4,3.28255E4,6.6498315E-1,-7.247928E-1,1.399E1,3.9992198E-1,4.899999E0,4.983165E-1,-3.052835E0,3.9359027E-1,9.422609E-1,2.156E1,2.11115E4,4.84805E-1,-3.9435586E-1,-7.30836E-1,4.280443E-1,-3.9840108E-1,1.287E1,2.2192152E-1,3.15975E4,1.7012948E0,1.7304386E0,6.4986377E0,3.3734939E-1,-9.9167734E-1,5.461254E-1,1.5142778E-1,3.505535E-1,6.0393524E0,4.7492436E-1,2.4702218E-1,-3.8609695E-2,-2.517109E0,-5.5446703E-2,-4.0216342E-1,-7.2485155E-1,-1.9271786E0,-4.2602E0,-4.44088E-2,4.181734E-1,-1.6335655E0,4.1036597E-1,8.696025E-1,6.316819E-2,4.185725E-1,-2.588786E0,-9.616664E-1,-1.0095848E0,-3.0117927E0,-7.068269E-1,-2.7867372E0,-2.1056235E0,-3.546475E0,-1.9989064E-1,-1.3362116E0,-1.1681246E0,-2.6632495E0,-8.276849E-1,-1.0030225E-2,-2.7493593E-1,9.118131E-1,-8.933162E-1,1.9559988E-1,8.969433E-1,5.409448E-1,3.957237E0,1.0102323E0,7.03973E-2,-1.0861651E0,2.74774E-1,1.1485182E0,1.7046951E0,1.1195647E0,5.001956E0,1.6000435E0,1.6789185E0,2.393705E0],"split_indices":[0,17,27,0,0,9,0,17,19,17,19,10,0,17,0,27,43,43,3,24,18,18,44,9,0,0,0,5,35,22,18,24,5,0,43,33,22,0,18,35,33,17,33,22,43,0,0,0,0,3,44,17,36,17,0,18,43,0,0,0,0,0,0,0,0,0,0,0,0,0,0,0,0,0,0,0,0,0,0,0,0,0,0,0,0,0,0,0,0,0,0,0,0,0,0,0,0,0,0,0,0,0,0],"split_type":[0,0,0,0,0,0,0,0,0,0,0,0,0,0,0,0,0,0,0,0,0,0,0,0,0,0,0,0,0,0,0,0,0,0,0,0,0,0,0,0,0,0,0,0,0,0,0,0,0,0,0,0,0,0,0,0,0,0,0,0,0,0,0,0,0,0,0,0,0,0,0,0,0,0,0,0,0,0,0,0,0,0,0,0,0,0,0,0,0,0,0,0,0,0,0,0,0,0,0,0,0,0,0],"sum_hessian":[6.3E3,3.985E3,2.315E3,2.959E3,1.026E3,1.9E1,2.296E3,1.659E3,1.3E3,5.42E2,4.84E2,1.4E1,5E0,1.652E3,6.44E2,1.124E3,5.35E2,5.3E1,1.247E3,2.73E2,2.69E2,3.04E2,1.8E2,8E0,6E0,1.302E3,3.5E2,4.56E2,1.88E2,1.03E2,1.021E3,5.18E2,1.7E1,1E1,4.3E1,2.36E2,1.011E3,1.54E2,1.19E2,6.5E1,2.04E2,1.64E2,1.4E2,1.55E2,2.5E1,5E0,3E0,1E0,5E0,6.78E2,6.24E2,2.55E2,9.5E1,4.53E2,3E0,2.9E1,1.59E2,6.9E1,3.4E1,4.63E2,5.58E2,4.09E2,1.09E2,1.6E1,1E0,2.8E1,1.5E1,1.78E2,5.8E1,7.94E2,2.17E2,4.4E1,1.1E2,2.9E1,9E1,1.7E1,4.8E1,2.6E1,1.78E2,5.3E1,1.11E2,6.8E1,7.2E1,6.9E1,8.6E1,2E0,2.3E1,3E0,2E0,1.8E2,4.98E2,9E0,6.15E2,2.13E2,4.2E1,4.5E1,5E1,3.47E2,1.06E2,2.3E1,6E0,5.5E1,1.04E2],"tree_param":{"num_deleted":"0","num_feature":"45","num_nodes":"103","size_leaf_vector":"1"}},{"base_weights":[-1.4659E-1,-1.2619391E1,2.148167E1,-5.3139358E0,-3.579872E1,2.0547685E2,1.9778303E1,-1.1625962E1,2.5310733E0,-4.6709404E1,-1.7443142E1,4.9369923E1,2.9375793E1,1.3671833E1,3.7058697E1,-6.591191E0,-2.0836805E1,-1.1716691E1,4.236358E0,-3.2861465E1,-5.5811615E1,-1.3819493E1,-4.366709E1,4.745729E0,1.2295262E2,1.6361023E1,3.163847E0,3.2207672E1,4.7552586E1,-4.2852905E1,-6.010538E0,-1.520838E1,-3.9324875E1,-2.9437454E1,-2.9175754E0,8.9346564E-1,7.55575E0,-4.878044E1,-1.9016327E1,-4.46376E1,-6.3948315E1,-3.1281954E1,-9.855623E0,-4.934334E0,-4.751316E1,-1.0910137E0,3.0520775E1,1.6871777E0,6.7022867E0,1.2497007E1,2.0636751E1,9.004485E0,-8.004125E0,4.4963364E1,2.9674095E1,8.189706E1,4.0687065E1,-2.779889E0,-5.7281952E-2,-8.9120036E-1,-2.44224E-1,-6.68883E-1,-4.0991383E0,-4.5899254E-1,-2.620885E0,-5.6969875E-1,-2.9438462E0,-5.6882143E-2,-2.9451444E0,7.106974E-2,-6.252141E-1,4.5280313E-1,1.5223265E-1,-2.8697248E0,-1.5000571E0,-6.48785E-1,-2.2577553E0,-1.4629643E0,-3.0325506E0,-1.3768326E-1,-3.257323E0,-1.9520758E0,-7.093712E-2,-1.4253539E-1,-9.1664755E-1,-5.404481E-1,4.6410447E-1,-2.4993777E0,-5.7897884E-2,1.7532295E0,1.9504242E-1,2.4075691E-1,6.868939E-1,3.7540035E0,9.7347224E-1,2.6342776E-1,8.4067947E-1,-1.3816556E0,2.5179315E-2,1.8544871E0,3.463052E0,7.64924E-1,1.5350624E0,4.6711683E0,1.5339345E0,2.2850213E0,1.6343977E0],"categories":[],"categories_nodes":[],"categories_segments":[],"categories_sizes":[],"default_left":[0,0,0,0,0,0,0,0,0,0,0,0,0,0,0,0,0,0,0,0,0,0,0,0,0,0,0,0,0,0,0,0,0,0,0,0,0,0,0,0,0,0,0,0,0,0,0,0,0,0,0,0,0,0,0,0,0,0,0,0,0,0,0,0,0,0,0,0,0,0,0,0,0,0,0,0,0,0,0,0,0,0,0,0,0,0,0,0,0,0,0,0,0,0,0,0,0,0,0,0,0,0,0,0,0,0,0],"id":3,"left_children":[1,3,5,7,9,11,13,15,17,19,21,23,-1,25,27,29,31,33,35,37,39,41,43,45,47,49,51,53,55,57,59,61,63,65,67,69,71,73,75,77,79,81,83,85,87,-1,89,-1,-1,91,93,95,97,99,101,103,105,-1,-1,-1,-1,-1,-1,-1,-1,-1,-1,-1,-1,-1,-1,-1,-1,-1,-1,-1,-1,-1,-1,-1,-1,-1,-1,-1,-1,-1,-1,-1,-1,-1,-1,-1,-1,-1,-1,-1,-1,-1,-1,-1,-1,-1,-1,-1,-1,-1,-1],"loss_changes":[1.6970929E6,6.754587E5,7.170955E5,1.5031628E5,1.9064525E5,1.223412E6,2.4018956E5,7.786455E4,3.2947094E4,7.3668125E4,3.3415992E4,5.19536E4,0E0,4.761947E4,2.8757562E4,2.2671828E4,6.1212797E4,2.2523533E4,1.3419857E4,5.196847E4,2.98765E4,2.1564875E4,6.171211E3,8.19811E3,1.4144531E3,2.1930469E4,2.2575758E4,1.1915969E4,4.052525E4,8.972723E3,1.4186684E4,5.4769305E4,5.3985125E4,2.48263E4,9.698696E3,4.289903E3,4.0806367E3,1.6234125E4,1.9940379E4,3.6395562E4,1.49245625E4,1.338468E4,1.5327922E4,5.1791077E2,4.415453E3,0E0,5.889546E2,0E0,0E0,6.6826406E3,3.8957375E4,6.5339746E3,1.9886648E4,1.0057625E4,4.6245625E3,1.4844656E4,4.802203E3,0E0,0E0,0E0,0E0,0E0,0E0,0E0,0E0,0E0,0E0,0E0,0E0,0E0,0E0,0E0,0E0,0E0,0E0,0E0,0E0,0E0,0E0,0E0,0E0,0E0,0E0,0E0,0E0,0E0,0E0,0E0,0E0,0E0,0E0,0E0,0E0,0E0,0E0,0E0,0E0,0E0,0E0,0E0,0E0,0E0,0E0,0E0,0E0,0E0,0E0],"parents":[2147483647,0,0,1,1,2,2,3,3,4,4,5,5,6,6,7,7,8,8,9,9,10,10,11,11,13,13,14,14,15,15,16,16,17,17,18,18,19,19,20,20,21,21,22,22,23,23,24,24,25,25,26,26,27,27,28,28,29,29,30,30,31,31,32,32,33,33,34,34,35,35,36,36,37,37,38,38,39,39,40,40,41,41,42,42,43,43,44,44,46,46,49,49,50,50,51,51,52,52,53,53,54,54,55,55,56,56],"right_children":[2,4,6,8,10,12,14,16,18,20,22,24,-1,26,28,30,32,34,36,38,40,42,44,46,48,50,52,54,56,58,60,62,64,66,68,70,72,74,76,78,80,82,84,86,88,-1,90,-1,-1,92,94,96,98,100,102,104,106,-1,-1,-1,-1,-1,-1,-1,-1,-1,-1,-1,-1,-1,-1,-1,-1,-1,-1,-1,-1,-1,-1,-1,-1,-1,-1,-1,-1,-1,-1,-1,-1,-1,-1,-1,-1,-1,-1,-1,-1,-1,-1,-1,-1,-1,-1,-1,-1,-1,-1],"split_conditions":[2.8278E4,3.525402E-1,-7.5E-1,2.4493E4,2.5145E4,7.5E-1,3.6702E4,2.3854592E-1,-8.660254E-1,5.4753286E-1,5.4900944E-1,1.8E-1,2.9375793E1,3.6217645E-1,4.12515E4,-1E-1,4.899999E0,-2.5065252E-1,2.63055E4,2.2514E4,4.899999E0,-8.660254E-1,-6.1210597E-1,3.15975E4,3.9346E4,3.1045E4,1.3E1,1.0800261E-1,-7.247928E-1,2.2236E4,1.165E1,9.922222E-1,4.6845895E-1,5.712682E-1,6.9126505E-1,8.660254E-1,6.44815E-1,0E0,5.1010734E-1,4.353237E-1,-9.9966663E-1,-1.6971314E4,5.5E0,2.71835E4,2.049E1,-1.0910137E0,4.9856715E-2,1.6871777E0,6.7022867E0,-9.3688136E-1,-9.9167734E-1,3.28255E4,-7.907757E-1,1.35E0,-3.15E0,4.7492436E-1,5E-1,-2.779889E0,-5.7281952E-2,-8.9120036E-1,-2.44224E-1,-6.68883E-1,-4.0991383E0,-4.5899254E-1,-2.620885E0,-5.6969875E-1,-2.9438462E0,-5.6882143E-2,-2.9451444E0,7.106974E-2,-6.252141E-1,4.5280313E-1,1.5223265E-1,-2.8697248E0,-1.5000571E0,-6.48785E-1,-2.2577553E0,-1.4629643E0,-3.0325506E0,-1.3768326E-1,-3.257323E0,-1.9520758E0,-7.093712E-2,-1.4253539E-1,-9.1664755E-1,-5.404481E-1,4.6410447E-1,-2.4993777E0,-5.7897884E-2,1.7532295E0,1.9504242E-1,2.4075691E-1,6.868939E-1,3.7540035E0,9.7347224E-1,2.6342776E-1,8.4067947E-1,-1.3816556E0,2.5179315E-2,1.8544871E0,3.463052E0,7.64924E-1,1.5350624E0,4.6711683E0,1.5339345E0,2.2850213E0,1.6343977E0],"split_indices":[0,16,27,0,0,12,0,16,37,18,16,10,0,16,0,28,23,36,0,0,23,37,36,0,0,0,26,16,35,0,27,43,18,35,3,38,29,41,16,16,44,2,23,0,22,0,16,0,0,43,44,0,35,28,28,18,23,0,0,0,0,0,0,0,0,0,0,0,0,0,0,0,0,0,0,0,0,0,0,0,0,0,0,0,0,0,0,0,0,0,0,0,0,0,0,0,0,0,0,0,0,0,0,0,0,0,0],"split_type":[0,0,0,0,0,0,0,0,0,0,0,0,0,0,0,0,0,0,0,0,0,0,0,0,0,0,0,0,0,0,0,0,0,0,0,0,0,0,0,0,0,0,0,0,0,0,0,0,0,0,0,0,0,0,0,0,0,0,0,0,0,0,0,0,0,0,0,0,0,0,0,0,0,0,0,0,0,0,0,0,0,0,0,0,0,0,0,0,0,0,0,0,0,0,0,0,0,0,0,0,0,0,0,0,0,0,0],"sum_hessian":[6.289E3,3.989E3,2.3E3,3.034E3,9.55E2,2E1,2.28E3,1.681E3,1.353E3,5.98E2,3.57E2,1.5E1,5E0,1.686E3,5.94E2,1.088E3,5.93E2,1.44E2,1.209E3,2.39E2,3.59E2,3.15E2,4.2E1,1E1,5E0,1.342E3,3.44E2,4.09E2,1.85E2,1.6E1,1.072E3,4.56E2,1.37E2,4.7E1,9.7E1,6.03E2,6.06E2,1.1E2,1.29E2,1.54E2,2.05E2,5.7E1,2.58E2,4E0,3.8E1,5E0,5E0,1E0,4E0,7.07E2,6.35E2,2.26E2,1.18E2,6.5E1,3.44E2,2.9E1,1.56E2,1.2E1,4E0,9.2E1,9.8E2,4.45E2,1.1E1,4.2E1,9.5E1,3E1,1.7E1,9.5E1,2E0,5.81E2,2.2E1,4.54E2,1.52E2,7.4E1,3.6E1,1.06E2,2.3E1,8E1,7.4E1,4E0,2.01E2,4.5E1,1.2E1,1.42E2,1.16E2,3E0,1E0,3.6E1,2E0,4E0,1E0,9.9E1,6.08E2,1.2E1,6.23E2,1.54E2,7.2E1,3.5E1,8.3E1,5.1E1,1.4E1,2.4E1,3.2E2,2.3E1,6E0,9.3E1,6.3E1],"tree_param":{"num_deleted":"0","num_feature":"45","num_nodes":"107","size_leaf_vector":"1"}},{"base_weights":[-1.15981966E-1,-1.1750167E1,1.9980858E1,-4.432847E0,-3.2735943E1,1.899157E2,1.8256327E1,-1.0153396E1,2.9028041E0,-4.376888E1,-1.5752639E1,4.664277E1,2.9404093E1,1.22477255E1,3.3648895E1,-5.5810633E0,-1.9830029E1,-1.7494263E1,3.7722733E0,-3.3578545E1,-5.3404984E1,-2.3763592E1,-1.0121274E0,4.9948335E0,1.1137598E2,1.5158804E1,1.7056382E0,2.9314701E1,4.479625E1,-1.9703955E1,-4.6404924E0,-3.852465E1,-1.3979408E1,-2.913842E0,-8.948985E0,9.810596E0,2.357981E0,-2.237113E1,-4.42801E1,-3.59226E1,-5.9228405E1,-1.4426501E1,-3.380133E1,-1.047745E1,5.309722E0,-1.3546505E1,1.6831006E0,1.6449982E0,1.18971985E2,1.1786978E1,1.9211391E1,3.9713457E0,-2.3047428E1,2.8647564E1,6.103004E0,3.0504393E1,5.133068E1,-3.3165786E0,-5.8685344E-1,-9.260994E-2,-4.906335E-1,-3.9283757E0,-1.5561681E0,-1.676915E-1,-1.0367702E0,3.6969814E-1,-1.4873685E0,8.2418454E-1,3.6619008E-1,4.093446E-2,3.803443E-1,-2.0583322E0,-4.9350125E-1,-9.574286E-1,-2.4037864E0,-2.5705087E0,-8.3183616E-1,-3.0826652E0,-1.5675348E0,-3.2004052E-1,-1.849408E0,-1.1680473E0,-2.3014927E0,-1.5310091E0,-3.321105E-1,-4.8058364E-1,4.0304676E-1,-9.943895E-1,1.8257828E-1,6.9969635E0,2.5679133E0,8.5254556E-1,4.9319616E-1,3.3076062E0,9.1375494E-1,6.8370044E-1,2.836167E-3,-2.1365824E0,-6.973591E-1,2.037704E0,1.338468E0,1.94559E0,1.1712643E0,4.1446505E0,2.1076124E0],"categories":[],"categories_nodes":[],"categories_segments":[],"categories_sizes":[],"default_left":[0,0,0,0,0,0,0,0,0,0,0,0,0,0,0,0,0,0,0,0,0,0,0,0,0,0,0,0,0,0,0,0,0,0,0,0,0,0,0,0,0,0,0,0,0,0,0,0,0,0,0,0,0,0,0,0,0,0,0,0,0,0,0,0,0,0,0,0,0,0,0,0,0,0,0,0,0,0,0,0,0,0,0,0,0,0,0,0,0,0,0,0,0,0,0,0,0,0,0,0,0,0,0,0,0],"id":4,"left_children":[1,3,5,7,9,11,13,15,17,19,21,23,-1,25,27,29,31,33,35,37,39,41,43,45,47,49,51,53,55,57,59,61,63,-1,65,67,69,71,73,75,77,79,81,83,85,87,-1,-1,89,91,93,95,97,99,-1,101,103,-1,-1,-1,-1,-1,-1,-1,-1,-1,-1,-1,-1,-1,-1,-1,-1,-1,-1,-1,-1,-1,-1,-1,-1,-1,-1,-1,-1,-1,-1,-1,-1,-1,-1,-1,-1,-1,-1,-1,-1,-1,-1,-1,-1,-1,-1,-1,-1],"loss_changes":[1.4666932E6,6.099474E5,6.705661E5,1.23697234E5,1.9174538E5,1.284638E6,2.1027506E5,7.31587E4,2.2979123E4,5.9284E4,4.7918688E4,4.7971773E4,0E0,5.0303844E4,2.956E4,1.4865875E4,5.753964E4,1.7948898E4,1.056641E4,3.5590125E4,3.0247125E4,2.4161578E4,8.672354E3,6.8343364E3,2.585547E2,1.7332594E4,2.005715E4,2.5150969E4,1.4964031E4,2.5224852E4,1.5225404E4,3.489717E4,2.9075719E4,0E0,1.5515762E4,3.7790117E3,8.121845E3,3.5073344E4,1.3864875E4,2.3637398E4,1.40885E4,2.4751305E4,1.5011172E4,4.2772427E3,3.648998E3,9.4508435E2,0E0,0E0,1.3190234E3,6.9582812E3,2.4370125E4,1.2419422E4,4.777951E3,9.3915E3,0E0,2.5404648E3,3.1269E4,0E0,0E0,0E0,0E0,0E0,0E0,0E0,0E0,0E0,0E0,0E0,0E0,0E0,0E0,0E0,0E0,0E0,0E0,0E0,0E0,0E0,0E0,0E0,0E0,0E0,0E0,0E0,0E0,0E0,0E0,0E0,0E0,0E0,0E0,0E0,0E0,0E0,0E0,0E0,0E0,0E0,0E0,0E0,0E0,0E0,0E0,0E0,0E0],"parents":[2147483647,0,0,1,1,2,2,3,3,4,4,5,5,6,6,7,7,8,8,9,9,10,10,11,11,13,13,14,14,15,15,16,16,17,17,18,18,19,19,20,20,21,21,22,22,23,23,24,24,25,25,26,26,27,27,28,28,29,29,30,30,31,31,32,32,34,34,35,35,36,36,37,37,38,38,39,39,40,40,41,41,42,42,43,43,44,44,45,45,48,48,49,49,50,50,51,51,52,52,53,53,55,55,56,56],"right_children":[2,4,6,8,10,12,14,16,18,20,22,24,-1,26,28,30,32,34,36,38,40,42,44,46,48,50,52,54,56,58,60,62,64,-1,66,68,70,72,74,76,78,80,82,84,86,88,-1,-1,90,92,94,96,98,100,-1,102,104,-1,-1,-1,-1,-1,-1,-1,-1,-1,-1,-1,-1,-1,-1,-1,-1,-1,-1,-1,-1,-1,-1,-1,-1,-1,-1,-1,-1,-1,-1,-1,-1,-1,-1,-1,-1,-1,-1,-1,-1,-1,-1,-1,-1,-1,-1,-1,-1],"split_conditions":[2.8278E4,3.4317344E-1,-7.5E-1,2.4542E4,2.50365E4,8.3E-1,3.611E4,2.4723245E-1,3.6336437E-1,4.280443E-1,5.5516547E-1,1.8E-1,2.9404093E1,3.5793355E-1,4.12515E4,1.75E0,2.0932E4,-9.307239E-1,3.6596385E-1,1.1E1,5.082254E-1,-1.8369701E-16,-1.7733662E4,9E-2,3.9346E4,3.1045E4,2.0600002E1,6.6498315E-1,2.8848243E-1,2.13425E4,5.416938E-1,1.305E1,4.8747015E-1,-2.913842E0,3.9359027E-1,4.6006504E-1,2.156E1,2.2273E4,4.7708467E-1,-8.4524906E-1,1.75E1,4.8708487E-1,5.05267E-1,-2.023977E4,-9.7784835E-1,3.15975E4,1.6831006E0,1.6449982E0,4.006939E-1,3.3734939E-1,-9.9167734E-1,4.4107744E-1,6.010101E-1,1.0800261E-1,6.103004E0,4.1132596E-1,3.7770796E-1,-3.3165786E0,-5.8685344E-1,-9.260994E-2,-4.906335E-1,-3.9283757E0,-1.5561681E0,-1.676915E-1,-1.0367702E0,3.6969814E-1,-1.4873685E0,8.2418454E-1,3.6619008E-1,4.093446E-2,3.803443E-1,-2.0583322E0,-4.9350125E-1,-9.574286E-1,-2.4037864E0,-2.5705087E0,-8.3183616E-1,-3.0826652E0,-1.5675348E0,-3.2004052E-1,-1.849408E0,-1.1680473E0,-2.3014927E0,-1.5310091E0,-3.321105E-1,-4.8058364E-1,4.0304676E-1,-9.943895E-1,1.8257828E-1,6.9969635E0,2.5679133E0,8.5254556E-1,4.9319616E-1,3.3076062E0,9.1375494E-1,6.8370044E-1,2.836167E-3,-2.1365824E0,-6.973591E-1,2.037704E0,1.338468E0,1.94559E0,1.1712643E0,4.1446505E0,2.1076124E0],"split_indices":[0,17,27,0,0,9,0,17,19,17,19,10,0,17,0,28,0,43,3,26,18,38,2,9,0,0,23,5,43,0,18,27,18,0,43,34,22,0,18,43,27,17,18,2,43,0,0,0,19,3,44,5,5,16,0,18,43,0,0,0,0,0,0,0,0,0,0,0,0,0,0,0,0,0,0,0,0,0,0,0,0,0,0,0,0,0,0,0,0,0,0,0,0,0,0,0,0,0,0,0,0,0,0,0,0],"split_type":[0,0,0,0,0,0,0,0,0,0,0,0,0,0,0,0,0,0,0,0,0,0,0,0,0,0,0,0,0,0,0,0,0,0,0,0,0,0,0,0,0,0,0,0,0,0,0,0,0,0,0,0,0,0,0,0,0,0,0,0,0,0,0,0,0,0,0,0,0,0,0,0,0,0,0,0,0,0,0,0,0,0,0,0,0,0,0,0,0,0,0,0,0,0,0,0,0,0,0,0,0,0,0,0,0],"sum_hessian":[6.271E3,3.972E3,2.299E3,2.946E3,1.026E3,2.2E1,2.277E3,1.655E3,1.291E3,6.21E2,4.05E2,1.7E1,5E0,1.639E3,6.38E2,1.125E3,5.3E2,5.2E1,1.239E3,3.04E2,3.17E2,2.62E2,1.43E2,1.1E1,6E0,1.284E3,3.55E2,4.62E2,1.76E2,6.9E1,1.056E3,1.25E2,4.05E2,8E0,4.4E1,2.34E2,1.005E3,1.5E2,1.54E2,8.1E1,2.36E2,1.37E2,1.25E2,5.7E1,8.6E1,7E0,4E0,1E0,5E0,7.03E2,5.81E2,3.26E2,2.9E1,4.6E2,2E0,5.7E1,1.19E2,9E0,6E1,6.87E2,3.69E2,1.8E1,1.07E2,1.58E2,2.47E2,2.5E1,1.9E1,6.2E1,1.72E2,7.78E2,2.27E2,5.9E1,9.1E1,2.1E1,1.33E2,4.4E1,3.7E1,2.16E2,2E1,1.02E2,3.5E1,6.9E1,5.6E1,8E0,4.9E1,1.3E1,7.3E1,5E0,2E0,3E0,2E0,1.86E2,5.17E2,1E1,5.71E2,9.3E1,2.33E2,8E0,2.1E1,5.9E1,4.01E2,2.4E1,3.3E1,2.5E1,9.4E1],"tree_param":{"num_deleted":"0","num_feature":"45","num_nodes":"105","size_leaf_vector":"1"}},{"base_weights":[-1.1268326E-1,-1.150096E1,1.942777E1,-4.9312034E0,-3.2597294E1,2.1675354E2,1.743131E1,-9.691335E0,3.3258822E0,-4.3093105E1,-1.5973485E1,4.904886E1,5.9307153E2,1.1597333E1,3.2390102E1,-5.4542155E0,-1.7233854E1,-8.777278E0,4.714817E0,-2.9297102E1,-5.0150414E1,-2.3406439E1,-7.912782E-1,4.8095284E0,9.821691E1,3.399891E1,1.2526837E1,1.3851318E1,2.2713184E-1,2.7860104E1,4.3052376E1,-3.1338506E0,-9.732351E0,-1.2195748E1,-3.491957E1,-2.8821312E1,-2.5276625E0,6.1863556E0,-5.936496E-1,-1.1253882E1,-4.261017E1,-3.4745983E1,-5.569737E1,-3.9948048E1,-1.7944593E1,-9.562616E0,6.663058E0,1.5962803E0,-1.1372449E1,6.734577E0,4.9393826E1,1.5524297E1,5.6488647E0,1.3702972E1,-5.136862E0,2.7063375E1,5.5163894E0,8.112883E1,3.6753353E1,-8.599685E-1,-9.4114594E-2,-1.2441071E0,-3.157159E-1,-5.158794E-1,-3.1428647E0,-4.3099356E-1,-2.466164E0,-2.7349699E0,-2.2361098E-1,-4.185368E-2,-1.8910382E0,3.773419E-1,8.147124E-3,-1.4432586E0,5.320823E-2,-3.1495512E-1,-1.91056E0,-1.2083673E0,-2.5287979E0,-8.592181E-1,-2.3775764E0,-2.2573283E0,-3.156524E0,-2.1653028E0,-1.2541543E-1,-3.1826544E-1,-1.3217149E0,-1.4669621E0,-2.5756818E-1,1.0004826E-1,8.642912E-1,-9.0196675E-1,1.7649232E-1,7.189865E-1,2.7276208E0,5.9369075E-1,1.0033771E0,1.7437626E-1,8.9189905E-1,8.2017803E-1,3.0415657E-1,-8.673243E-2,-1.2744094E0,1.9049631E0,1.2531078E0,4.4605465E0,1.4670914E0,1.4381801E0,2.0426874E0],"categories":[],"categories_nodes":[],"categories_segments":[],"categories_sizes":[],"default_left":[0,0,0,0,0,0,0,0,0,0,0,0,0,0,0,0,0,0,0,0,0,0,0,0,0,0,0,0,0,0,0,0,0,0,0,0,0,0,0,0,0,0,0,0,0,0,0,0,0,0,0,0,0,0,0,0,0,0,0,0,0,0,0,0,0,0,0,0,0,0,0,0,0,0,0,0,0,0,0,0,0,0,0,0,0,0,0,0,0,0,0,0,0,0,0,0,0,0,0,0,0,0,0,0,0,0,0,0,0],"id":5,"left_children":[1,3,5,7,9,11,13,15,17,19,21,23,25,27,29,31,33,35,37,39,41,43,45,47,49,-1,-1,51,53,55,57,59,61,63,65,67,69,71,73,75,77,79,81,83,85,87,89,-1,91,-1,93,95,97,99,101,103,-1,105,107,-1,-1,-1,-1,-1,-1,-1,-1,-1,-1,-1,-1,-1,-1,-1,-1,-1,-1,-1,-1,-1,-1,-1,-1,-1,-1,-1,-1,-1,-1,-1,-1,-1,-1,-1,-1,-1,-1,-1,-1,-1,-1,-1,-1,-1,-1,-1,-1,-1,-1],"loss_changes":[1.3930519E6,5.479935E5,9.042838E5,1.1861485E5,1.6314881E5,1.4224475E6,1.9886012E5,6.107467E4,1.860018E4,5.4514125E4,4.1171234E4,3.6505375E4,3.802E4,4.212972E4,2.9712562E4,1.2149727E4,6.0876656E4,1.42076455E4,7.7449805E3,4.6841953E4,3.0449438E4,2.1418328E4,7.9752407E3,4.75099E3,7.5935E3,0E0,0E0,1.8739656E4,1.9804012E4,2.67125E4,4.2348875E4,1.3997874E4,2.2161137E4,5.0447273E4,5.715447E4,1.6768283E4,5.2189604E3,6.3578945E3,1.0154405E4,1.111255E4,1.5378734E4,2.2346133E4,1.8873625E4,7.43475E3,1.811641E4,4.734286E3,3.2340166E3,0E0,7.591394E2,0E0,1.1866797E2,1.8652031E4,6.1024766E3,1.5053018E3,1.3526738E4,8.9614375E3,0E0,8.264641E3,4.1977188E3,0E0,0E0,0E0,0E0,0E0,0E0,0E0,0E0,0E0,0E0,0E0,0E0,0E0,0E0,0E0,0E0,0E0,0E0,0E0,0E0,0E0,0E0,0E0,0E0,0E0,0E0,0E0,0E0,0E0,0E0,0E0,0E0,0E0,0E0,0E0,0E0,0E0,0E0,0E0,0E0,0E0,0E0,0E0,0E0,0E0,0E0,0E0,0E0,0E0,0E0],"parents":[2147483647,0,0,1,1,2,2,3,3,4,4,5,5,6,6,7,7,8,8,9,9,10,10,11,11,12,12,13,13,14,14,15,15,16,16,17,17,18,18,19,19,20,20,21,21,22,22,23,23,24,24,27,27,28,28,29,29,30,30,31,31,32,32,33,33,34,34,35,35,36,36,37,37,38,38,39,39,40,40,41,41,42,42,43,43,44,44,45,45,46,46,48,48,50,50,51,51,52,52,53,53,54,54,55,55,57,57,58,58],"right_children":[2,4,6,8,10,12,14,16,18,20,22,24,26,28,30,32,34,36,38,40,42,44,46,48,50,-1,-1,52,54,56,58,60,62,64,66,68,70,72,74,76,78,80,82,84,86,88,90,-1,92,-1,94,96,98,100,102,104,-1,106,108,-1,-1,-1,-1,-1,-1,-1,-1,-1,-1,-1,-1,-1,-1,-1,-1,-1,-1,-1,-1,-1,-1,-1,-1,-1,-1,-1,-1,-1,-1,-1,-1,-1,-1,-1,-1,-1,-1,-1,-1,-1,-1,-1,-1,-1,-1,-1,-1,-1,-1],"split_conditions":[2.8237E4,3.525402E-1,-7.5E-1,2.50365E4,2.50365E4,8.3E-1,3.611E4,2.3854592E-1,-8.660254E-1,5.082254E-1,5.5516547E-1,4.0492E4,-2.603566E4,3.8939342E-1,4.12515E4,3.4730524E-1,4.899999E0,4.1516083E-1,2.8006917E-1,1.5142778E-1,-3.9840108E-1,-8.4524906E-1,-1.761063E4,6.300909E-1,8.1568426E-1,3.399891E1,1.2526837E1,6.586118E-1,4.4107744E-1,6.6498315E-1,-7.247928E-1,-8.660254E-1,1.305E1,9.922222E-1,4.992552E-1,1.075E1,3.4718564E-1,7.288823E-1,3.1986532E-1,8.9631796E-1,5E-1,4.465027E-1,4.899999E0,8.878852E-1,5.4E0,8.9E0,6.648554E-1,1.5962803E0,3.1268E4,6.734577E0,4.31915E4,3.1045E4,8.0957365E-1,8.660254E-1,6.768271E-1,1.0800261E-1,5.5163894E0,4.7492436E-1,2.4702218E-1,-8.599685E-1,-9.4114594E-2,-1.2441071E0,-3.157159E-1,-5.158794E-1,-3.1428647E0,-4.3099356E-1,-2.466164E0,-2.7349699E0,-2.2361098E-1,-4.185368E-2,-1.8910382E0,3.773419E-1,8.147124E-3,-1.4432586E0,5.320823E-2,-3.1495512E-1,-1.91056E0,-1.2083673E0,-2.5287979E0,-8.592181E-1,-2.3775764E0,-2.2573283E0,-3.156524E0,-2.1653028E0,-1.2541543E-1,-3.1826544E-1,-1.3217149E0,-1.4669621E0,-2.5756818E-1,1.0004826E-1,8.642912E-1,-9.0196675E-1,1.7649232E-1,7.189865E-1,2.7276208E0,5.9369075E-1,1.0033771E0,1.7437626E-1,8.9189905E-1,8.2017803E-1,3.0415657E-1,-8.673243E-2,-1.2744094E0,1.9049631E0,1.2531078E0,4.4605465E0,1.4670914E0,1.4381801E0,2.0426874E0],"split_indices":[0,16,27,0,0,9,0,16,37,18,19,0,2,16,0,36,24,19,16,36,33,43,2,4,4,0,0,29,5,5,35,37,27,43,18,28,16,29,5,4,42,16,24,33,24,27,44,0,0,0,0,0,19,41,16,16,0,18,43,0,0,0,0,0,0,0,0,0,0,0,0,0,0,0,0,0,0,0,0,0,0,0,0,0,0,0,0,0,0,0,0,0,0,0,0,0,0,0,0,0,0,0,0,0,0,0,0,0,0],"split_type":[0,0,0,0,0,0,0,0,0,0,0,0,0,0,0,0,0,0,0,0,0,0,0,0,0,0,0,0,0,0,0,0,0,0,0,0,0,0,0,0,0,0,0,0,0,0,0,0,0,0,0,0,0,0,0,0,0,0,0,0,0,0,0,0,0,0,0,0,0,0,0,0,0,0,0,0,0,0,0,0,0,0,0,0,0,0,0,0,0,0,0,0,0,0,0,0,0,0,0,0,0,0,0,0,0,0,0,0,0],"sum_hessian":[6.258E3,3.954E3,2.304E3,3.016E3,9.38E2,2.2E1,2.282E3,1.913E3,1.103E3,5.74E2,3.64E2,1.6E1,6E0,1.643E3,6.39E2,1.226E3,6.87E2,1.13E2,9.9E2,1.96E2,3.78E2,2.44E2,1.2E2,9E0,7E0,4E0,2E0,1.371E3,2.72E2,4.51E2,1.88E2,7.96E2,4.3E2,5.36E2,1.51E2,2.6E1,8.7E1,7.75E2,2.15E2,8.4E1,1.12E2,1.02E2,2.76E2,5.9E1,1.85E2,5.5E1,6.5E1,3E0,6E0,3E0,4E0,1.138E3,2.33E2,7.7E1,1.95E2,4.48E2,3E0,2.5E1,1.63E2,6.4E1,7.32E2,7.8E1,3.52E2,5.18E2,1.8E1,5.4E1,9.7E1,1.2E1,1.4E1,8.4E1,3E0,6.32E2,1.43E2,1.1E1,2.04E2,7.2E1,1.2E1,3.5E1,7.7E1,4.4E1,5.8E1,1.17E2,1.59E2,5.4E1,5E0,7.9E1,1.06E2,9E0,4.6E1,4.6E1,1.9E1,4E0,2E0,1E0,3E0,6.33E2,5.05E2,1.99E2,3.4E1,5.6E1,2.1E1,1.68E2,2.7E1,6.6E1,3.82E2,2.1E1,4E0,5.8E1,1.05E2],"tree_param":{"num_deleted":"0","num_feature":"45","num_nodes":"109","size_leaf_vector":"1"}},{"base_weights":[-6.6290036E-2,-1.0955431E1,1.8733673E1,-4.940102E0,-3.3254658E1,2.0046713E2,1.689621E1,-1.0471081E1,2.223862E0,-4.574907E1,-1.9075653E1,3.6487793E1,5.700645E2,1.04194145E1,2.982763E1,-5.5807304E0,-1.9839758E1,-9.668187E0,3.6308253E0,-5.791754E1,-3.8811794E1,-2.570124E1,-4.39976E0,7.611152E1,-7.1901326E0,3.263895E1,1.2109275E1,1.2898172E1,-2.57336E0,2.4219265E1,3.7752243E1,-3.517099E1,-5.033153E0,-3.9356857E1,-1.5536745E1,-2.9367924E1,-2.8924217E0,5.287269E-1,6.6030307E0,-6.48954E1,-4.5728767E1,-2.2450665E1,-4.7615986E1,-1.7114906E1,-3.5949913E1,-8.424307E0,1.8496359E1,5.867722E0,4.756291E1,-1.7164703E1,9.569258E0,1.4478984E1,4.186466E0,2.5834582E0,-1.4524703E1,2.3301098E1,5.571412E1,6.438861E1,3.234219E1,-2.458354E0,-7.746724E-3,-7.712278E-1,-1.9790822E-1,-3.259771E0,-1.4587717E0,-5.346369E-1,-1.5809268E0,-2.8861802E0,-1.1897093E-1,-6.836758E-2,-2.8161225E0,-1.0994555E0,5.9165325E-2,3.9668053E-1,7.127503E-2,-2.6486483E0,-3.630778E0,-1.7789425E0,-2.8391497E0,-1.5975609E0,-1.1151942E-1,-2.6373897E0,-9.500641E-1,-1.1694673E0,-1.142175E-1,-2.5535524E0,-1.1777728E0,-7.7300644E-1,2.7298868E-2,4.31099E-1,1.0703534E0,5.26607E-1,2.5989673E0,-2.5502816E-1,-9.278709E-1,1.7060928E-1,7.0101184E-1,5.6940836E-1,9.2657834E-1,2.674773E-1,-5.179874E-1,4.9711606E-1,-3.4213838E-1,-1.0682036E0,1.3060865E-1,1.3433678E0,9.162473E-1,5.3095245E0,1.3544859E0,3.9043624E0,1.269641E0,1.2090306E0,1.8154062E0],"categories":[],"categories_nodes":[],"categories_segments":[],"categories_sizes":[],"default_left":[0,0,0,0,0,0,0,0,0,0,0,0,0,0,0,0,0,0,0,0,0,0,0,0,0,0,0,0,0,0,0,0,0,0,0,0,0,0,0,0,0,0,0,0,0,0,0,0,0,0,0,0,0,0,0,0,0,0,0,0,0,0,0,0,0,0,0,0,0,0,0,0,0,0,0,0,0,0,0,0,0,0,0,0,0,0,0,0,0,0,0,0,0,0,0,0,0,0,0,0,0,0,0,0,0,0,0,0,0,0,0,0,0],"id":6,"left_children":[1,3,5,7,9,11,13,15,17,19,21,23,25,27,29,31,33,35,37,39,41,43,45,47,49,-1,-1,51,53,55,57,59,61,63,65,67,69,71,73,75,77,79,81,83,85,87,89,-1,91,93,95,97,99,101,103,105,107,109,111,-1,-1,-1,-1,-1,-1,-1,-1,-1,-1,-1,-1,-1,-1,-1,-1,-1,-1,-1,-1,-1,-1,-1,-1,-1,-1,-1,-1,-1,-1,-1,-1,-1,-1,-1,-1,-1,-1,-1,-1,-1,-1,-1,-1,-1,-1,-1,-1,-1,-1,-1,-1,-1,-1],"loss_changes":[1.2876609E6,5.341042E5,7.669859E5,1.2436255E5,1.4900319E5,1.3731451E6,1.910675E5,8.1029625E4,2.2924043E4,3.5655E4,3.8587016E4,2.9968848E4,3.1749E4,4.9115062E4,3.2952062E4,1.8699426E4,5.0365766E4,1.9269773E4,1.1281875E4,1.07256875E4,4.056047E4,2.3496328E4,1.1674133E4,5.015133E3,1.6687631E3,0E0,0E0,1.7566984E4,1.5137095E4,1.1685781E4,4.316625E4,1.0284229E4,1.2729328E4,2.677289E4,3.853417E4,2.8177918E4,8.804803E3,8.869849E3,4.2943906E3,5.3576875E3,4.9360938E3,1.9715434E4,2.645775E4,1.3997641E4,2.203686E4,6.7615674E3,3.6151562E2,0E0,5.9735645E2,6.158203E0,6.1780365E1,1.3354406E4,3.405265E3,1.1999035E4,8.729005E3,7.2805E3,1.4461602E4,2.5794953E4,7.6349062E3,0E0,0E0,0E0,0E0,0E0,0E0,0E0,0E0,0E0,0E0,0E0,0E0,0E0,0E0,0E0,0E0,0E0,0E0,0E0,0E0,0E0,0E0,0E0,0E0,0E0,0E0,0E0,0E0,0E0,0E0,0E0,0E0,0E0,0E0,0E0,0E0,0E0,0E0,0E0,0E0,0E0,0E0,0E0,0E0,0E0,0E0,0E0,0E0,0E0,0E0,0E0,0E0,0E0,0E0],"parents":[2147483647,0,0,1,1,2,2,3,3,4,4,5,5,6,6,7,7,8,8,9,9,10,10,11,11,12,12,13,13,14,14,15,15,16,16,17,17,18,18,19,19,20,20,21,21,22,22,23,23,24,24,27,27,28,28,29,29,30,30,31,31,32,32,33,33,34,34,35,35,36,36,37,37,38,38,39,39,40,40,41,41,42,42,43,43,44,44,45,45,46,46,48,48,49,49,50,50,51,51,52,52,53,53,54,54,55,55,56,56,57,57,58,58],"right_children":[2,4,6,8,10,12,14,16,18,20,22,24,26,28,30,32,34,36,38,40,42,44,46,48,50,-1,-1,52,54,56,58,60,62,64,66,68,70,72,74,76,78,80,82,84,86,88,90,-1,92,94,96,98,100,102,104,106,108,110,112,-1,-1,-1,-1,-1,-1,-1,-1,-1,-1,-1,-1,-1,-1,-1,-1,-1,-1,-1,-1,-1,-1,-1,-1,-1,-1,-1,-1,-1,-1,-1,-1,-1,-1,-1,-1,-1,-1,-1,-1,-1,-1,-1,-1,-1,-1,-1,-1,-1,-1,-1,-1,-1,-1],"split_conditions":[2.8278E4,3.6900368E-1,-7.5E-1,2.4493E4,2.4694E4,6.2E-1,3.5156E4,2.5461254E-1,-8.660254E-1,2.20185E4,5.533848E-1,9.594095E-2,-2.603566E4,3.8745388E-1,3.98845E4,-1E-1,2.04235E4,4.2303354E-1,2.63055E4,1.696E1,5.4753286E-1,5.416938E-1,6.648554E-1,-6.3108796E-1,3.15975E4,3.263895E1,1.2109275E1,6.812859E-1,8.5702014E-1,6.5488213E-1,-7.247928E-1,2.2236E4,1.165E1,1.395E1,4.899999E0,-9.307239E-1,6.8373495E-1,3.2668644E-1,7.288823E-1,4.7592607E-1,5.5E1,9.1979086E-1,5.893712E-1,1.13E1,-3.348796E-1,1.287E1,7.784295E-1,5.867722E0,3.25125E4,-1.829514E4,4.0492E4,3.1045E4,6.3E1,6.0435593E-1,6.387494E-1,4.0977937E-1,4.3E-1,5.3E1,2.4702218E-1,-2.458354E0,-7.746724E-3,-7.712278E-1,-1.9790822E-1,-3.259771E0,-1.4587717E0,-5.346369E-1,-1.5809268E0,-2.8861802E0,-1.1897093E-1,-6.836758E-2,-2.8161225E0,-1.0994555E0,5.9165325E-2,3.9668053E-1,7.127503E-2,-2.6486483E0,-3.630778E0,-1.7789425E0,-2.8391497E0,-1.5975609E0,-1.1151942E-1,-2.6373897E0,-9.500641E-1,-1.1694673E0,-1.142175E-1,-2.5535524E0,-1.1777728E0,-7.7300644E-1,2.7298868E-2,4.31099E-1,1.0703534E0,5.26607E-1,2.5989673E0,-2.5502816E-1,-9.278709E-1,1.7060928E-1,7.0101184E-1,5.6940836E-1,9.2657834E-1,2.674773E-1,-5.179874E-1,4.9711606E-1,-3.4213838E-1,-1.0682036E0,1.3060865E-1,1.3433678E0,9.162473E-1,5.3095245E0,1.3544859E0,3.9043624E0,1.269641E0,1.2090306E0,1.8154062E0],"split_indices":[0,17,27,0,0,9,0,17,37,0,19,17,2,17,0,28,0,19,0,22,18,18,44,33,0,0,0,29,4,5,35,0,27,27,23,43,3,19,29,19,21,29,19,22,34,22,4,0,0,2,0,0,21,29,44,29,9,21,43,0,0,0,0,0,0,0,0,0,0,0,0,0,0,0,0,0,0,0,0,0,0,0,0,0,0,0,0,0,0,0,0,0,0,0,0,0,0,0,0,0,0,0,0,0,0,0,0,0,0,0,0,0,0],"split_type":[0,0,0,0,0,0,0,0,0,0,0,0,0,0,0,0,0,0,0,0,0,0,0,0,0,0,0,0,0,0,0,0,0,0,0,0,0,0,0,0,0,0,0,0,0,0,0,0,0,0,0,0,0,0,0,0,0,0,0,0,0,0,0,0,0,0,0,0,0,0,0,0,0,0,0,0,0,0,0,0,0,0,0,0,0,0,0,0,0,0,0,0,0,0,0,0,0,0,0,0,0,0,0,0,0,0,0,0,0,0,0,0,0],"sum_hessian":[6.288E3,3.982E3,2.306E3,3.137E3,8.45E2,2.2E1,2.284E3,1.77E3,1.367E3,4.48E2,3.97E2,1.6E1,6E0,1.523E3,7.61E2,1.164E3,6.06E2,1.44E2,1.223E3,1.6E2,2.88E2,2.73E2,1.24E2,8E0,8E0,4E0,2E0,1.279E3,2.44E2,4.48E2,3.13E2,2E1,1.144E3,1.08E2,4.98E2,3.6E1,1.08E2,5.99E2,6.24E2,9.9E1,6.1E1,1.02E2,1.86E2,1.5E2,1.23E2,1.06E2,1.8E1,2E0,6E0,5E0,3E0,1.082E3,1.97E2,1.71E2,7.3E1,4.37E2,1.1E1,5.1E1,2.62E2,1.4E1,6E0,1.06E2,1.038E3,2.9E1,7.9E1,3.84E2,1.14E2,1.7E1,1.9E1,1.06E2,2E0,1.6E1,5.83E2,4.96E2,1.28E2,4.2E1,5.7E1,3.4E1,2.7E1,6.9E1,3.3E1,1.57E2,2.9E1,1.05E2,4.5E1,5.4E1,6.9E1,5.9E1,4.7E1,5E0,1.3E1,1E0,5E0,1E0,4E0,2E0,1E0,6.16E2,4.66E2,1.83E2,1.4E1,9.6E1,7.5E1,5.2E1,2.1E1,2.52E2,1.85E2,3E0,8E0,3.7E1,1.4E1,8.8E1,1.74E2],"tree_param":{"num_deleted":"0","num_feature":"45","num_nodes":"113","size_leaf_vector":"1"}},{"base_weights":[9.9116124E-2,-9.336419E0,1.9526522E1,-4.1479945E0,-3.064974E1,1.8176596E2,1.75169E1,-8.987791E0,3.86112E0,-4.4393295E1,-1.7030432E1,3.728799E1,5.4795386E2,1.2076694E1,3.0202782E1,-4.2165093E0,-1.6992905E1,-7.335895E0,5.241416E0,-6.1847427E1,-3.9921684E1,-2.6807535E1,-7.89574E0,2.772177E0,4.803097E0,3.1333393E1,1.1705633E1,1.43294115E1,2.376096E0,4.4535156E1,2.7361393E1,-9.557686E0,-1.9392709E0,-3.807188E1,-1.3496084E1,-5.414682E0,-2.9254978E0,7.6981964E0,2.6877072E0,-5.5250786E1,-8.381983E1,-2.3657776E1,-4.839589E1,-2.0569498E1,-4.183287E1,-4.3634915E0,-3.2590694E1,2.593165E1,-1.494395E1,1.1342309E1,1.819418E1,5.767656E0,-1.1234146E1,7.168635E1,2.240681E1,3.6593292E1,2.467153E1,-4.0330458E-1,-2.6498306E0,-7.6238406E-1,-5.2795332E-2,-3.630554E0,-1.5563427E0,-4.2652336E-1,-1.3673304E0,-9.672834E-1,-3.1414073E-2,8.2443756E-1,3.0792534E-1,-1.3803741E-1,2.2104056E-1,2.1152477E-1,-2.8115482E0,-4.6547675E0,-2.564942E0,-6.500513E-1,-2.2885988E0,3.3198994E-2,-2.4780796E0,-1.9104989E0,-7.6959676E-1,-2.6577642E0,-1.2926583E0,4.5764396E-1,-3.8351828E-1,-2.3654563E0,-1.0574951E0,1.7692433E-1,1.4851292E0,-8.7407124E-1,7.045918E-2,2.7671736E-1,6.804556E-1,3.4470756E0,8.615427E-1,1.6990305E-1,8.569767E-1,-9.241024E-1,6.523158E-1,4.9716444E0,3.085529E0,1.2246761E0,3.4124255E-1,1.7756342E0,3.9405353E0,1.3599719E0,8.103405E-1],"categories":[],"categories_nodes":[],"categories_segments":[],"categories_sizes":[],"default_left":[0,0,0,0,0,0,0,0,0,0,0,0,0,0,0,0,0,0,0,0,0,0,0,0,0,0,0,0,0,0,0,0,0,0,0,0,0,0,0,0,0,0,0,0,0,0,0,0,0,0,0,0,0,0,0,0,0,0,0,0,0,0,0,0,0,0,0,0,0,0,0,0,0,0,0,0,0,0,0,0,0,0,0,0,0,0,0,0,0,0,0,0,0,0,0,0,0,0,0,0,0,0,0,0,0,0,0],"id":7,"left_children":[1,3,5,7,9,11,13,15,17,19,21,23,25,27,29,31,33,35,37,39,41,43,45,47,-1,-1,-1,49,51,53,55,57,59,61,63,65,-1,67,69,71,73,75,77,79,81,83,85,87,89,91,93,95,97,99,101,103,105,-1,-1,-1,-1,-1,-1,-1,-1,-1,-1,-1,-1,-1,-1,-1,-1,-1,-1,-1,-1,-1,-1,-1,-1,-1,-1,-1,-1,-1,-1,-1,-1,-1,-1,-1,-1,-1,-1,-1,-1,-1,-1,-1,-1,-1,-1,-1,-1,-1,-1],"loss_changes":[1.1506231E6,4.6708412E5,6.658499E5,1.3178839E5,1.5403994E5,1.3022201E6,1.3959531E5,8.086283E4,1.9836559E4,2.9608688E4,3.7030953E4,3.8277684E4,2.621475E4,3.1018656E4,2.35415E4,1.614627E4,5.7790297E4,1.3545781E4,7.137828E3,7.2543125E3,4.4336875E4,1.7978969E4,1.878642E4,5.721371E3,0E0,0E0,0E0,1.3104406E4,1.2481822E4,5.7874E4,1.17618125E4,2.5295441E4,1.0952409E4,2.4605938E4,4.653468E4,9.122908E3,0E0,7.762129E3,5.309581E3,4.0858594E3,3.5235156E2,2.6506453E4,1.2385781E4,1.2564074E4,9.119633E3,8.607319E3,3.545959E3,4.015569E2,3.5659973E2,8.521758E3,2.3304094E4,5.762255E3,9.744172E3,6.0428438E3,1.6536797E3,2.3563281E3,8.0755938E3,0E0,0E0,0E0,0E0,0E0,0E0,0E0,0E0,0E0,0E0,0E0,0E0,0E0,0E0,0E0,0E0,0E0,0E0,0E0,0E0,0E0,0E0,0E0,0E0,0E0,0E0,0E0,0E0,0E0,0E0,0E0,0E0,0E0,0E0,0E0,0E0,0E0,0E0,0E0,0E0,0E0,0E0,0E0,0E0,0E0,0E0,0E0,0E0,0E0,0E0],"parents":[2147483647,0,0,1,1,2,2,3,3,4,4,5,5,6,6,7,7,8,8,9,9,10,10,11,11,12,12,13,13,14,14,15,15,16,16,17,17,18,18,19,19,20,20,21,21,22,22,23,23,27,27,28,28,29,29,30,30,31,31,32,32,33,33,34,34,35,35,37,37,38,38,39,39,40,40,41,41,42,42,43,43,44,44,45,45,46,46,47,47,48,48,49,49,50,50,51,51,52,52,53,53,54,54,55,55,56,56],"right_children":[2,4,6,8,10,12,14,16,18,20,22,24,26,28,30,32,34,36,38,40,42,44,46,48,-1,-1,-1,50,52,54,56,58,60,62,64,66,-1,68,70,72,74,76,78,80,82,84,86,88,90,92,94,96,98,100,102,104,106,-1,-1,-1,-1,-1,-1,-1,-1,-1,-1,-1,-1,-1,-1,-1,-1,-1,-1,-1,-1,-1,-1,-1,-1,-1,-1,-1,-1,-1,-1,-1,-1,-1,-1,-1,-1,-1,-1,-1,-1,-1,-1,-1,-1,-1,-1,-1,-1,-1,-1],"split_conditions":[2.8894E4,3.8007382E-1,-7.5E-1,2.53095E4,2.45975E4,8.3E-1,3.6702E4,2.4723245E-1,-8.660254E-1,2.0932E4,4.9111575E-1,1.8E-1,-2.603566E4,6.758655E-1,-7.247928E-1,2.18585E4,2.04235E4,7.0481926E-1,4.5823976E-1,7.7E-1,1.1E1,3.9435586E-1,5.4900944E-1,1.0140156E-1,4.803097E0,3.1333393E1,1.1705633E1,3.17135E4,6.0000005E0,3.7770796E-1,-9.422609E-1,9.95919E-1,4.006939E-1,1.305E1,4.3999996E0,4.1516083E-1,-2.9254978E0,5.75E0,8.95E0,-9.9966663E-1,4.465027E-1,4.7939903E-1,-9.990741E-1,3.2668644E-1,-3.348796E-1,3.35E0,1E1,1E-2,3.15975E4,5.533848E-1,-9.9167734E-1,7.0252746E-1,3.3925E4,-8.878852E-1,1.14450864E-1,6.6498315E-1,3.505535E-1,-4.0330458E-1,-2.6498306E0,-7.6238406E-1,-5.2795332E-2,-3.630554E0,-1.5563427E0,-4.2652336E-1,-1.3673304E0,-9.672834E-1,-3.1414073E-2,8.2443756E-1,3.0792534E-1,-1.3803741E-1,2.2104056E-1,2.1152477E-1,-2.8115482E0,-4.6547675E0,-2.564942E0,-6.500513E-1,-2.2885988E0,3.3198994E-2,-2.4780796E0,-1.9104989E0,-7.6959676E-1,-2.6577642E0,-1.2926583E0,4.5764396E-1,-3.8351828E-1,-2.3654563E0,-1.0574951E0,1.7692433E-1,1.4851292E0,-8.7407124E-1,7.045918E-2,2.7671736E-1,6.804556E-1,3.4470756E0,8.615427E-1,1.6990305E-1,8.569767E-1,-9.241024E-1,6.523158E-1,4.9716444E0,3.085529E0,1.2246761E0,3.4124255E-1,1.7756342E0,3.9405353E0,1.3599719E0,8.103405E-1],"split_indices":[0,17,27,0,0,9,0,17,37,0,19,10,2,29,35,0,0,3,18,12,26,35,16,16,0,0,0,0,23,43,33,43,19,27,24,19,0,27,22,44,16,16,44,19,34,28,26,9,0,19,44,44,0,33,14,5,17,0,0,0,0,0,0,0,0,0,0,0,0,0,0,0,0,0,0,0,0,0,0,0,0,0,0,0,0,0,0,0,0,0,0,0,0,0,0,0,0,0,0,0,0,0,0,0,0,0,0],"split_type":[0,0,0,0,0,0,0,0,0,0,0,0,0,0,0,0,0,0,0,0,0,0,0,0,0,0,0,0,0,0,0,0,0,0,0,0,0,0,0,0,0,0,0,0,0,0,0,0,0,0,0,0,0,0,0,0,0,0,0,0,0,0,0,0,0,0,0,0,0,0,0,0,0,0,0,0,0,0,0,0,0,0,0,0,0,0,0,0,0,0,0,0,0,0,0,0,0,0,0,0,0,0,0,0,0,0,0],"sum_hessian":[6.275E3,4.224E3,2.051E3,3.398E3,8.26E2,2.4E1,2.027E3,2.118E3,1.28E3,4.1E2,4.16E2,1.8E1,6E0,1.42E3,6.07E2,1.328E3,7.9E2,1.4E2,1.14E3,8.1E1,3.29E2,2E2,2.16E2,1.2E1,6E0,4E0,2E0,1.152E3,2.68E2,9.8E1,5.09E2,3.96E2,9.32E2,1.11E2,6.79E2,1.36E2,4E0,5.8E2,5.6E2,6.5E1,1.6E1,1.14E2,2.15E2,1.43E2,5.7E1,1.9E2,2.6E1,5E0,7E0,6.52E2,5E2,2.15E2,5.3E1,4.3E1,5.5E1,1.12E2,3.97E2,3.84E2,1.2E1,5.7E1,8.75E2,1.7E1,9.4E1,5.01E2,1.78E2,3.4E1,1.02E2,8.5E1,4.95E2,1.35E2,4.25E2,1E0,6.4E1,1.1E1,5E0,7.8E1,3.6E1,5E0,2.1E2,3.1E1,1.12E2,3.2E1,2.5E1,3.7E1,1.53E2,1E1,1.6E1,1E0,4E0,6E0,1E0,1.84E2,4.68E2,8E0,4.92E2,1.79E2,3.6E1,4.1E1,1.2E1,9E0,3.4E1,4.8E1,7E0,1.11E2,1E0,3.04E2,9.3E1],"tree_param":{"num_deleted":"0","num_feature":"45","num_nodes":"107","size_leaf_vector":"1"}},{"base_weights":[2.764311E-1,2.4798994E1,-5.3441715E0,2.7110782E2,2.1392002E1,-8.9697194E-1,-2.5284496E1,6.5079285E1,5.267046E2,2.7772339E1,1.1316523E1,3.8529317E0,-5.830546E0,-1.2590406E1,-3.3133522E1,8.789866E1,8.875572E0,3.0080053E1,1.1315445E1,3.876711E1,2.3401789E1,1.8977676E1,1.9558222E0,8.508013E0,-4.481586E0,-1.3302369E0,-1.4693269E1,-1.3144141E0,-2.1109745E1,-1.2033446E1,-4.2931957E1,1.0603801E2,2.3892324E0,6.463583E-1,1.6079928E-1,4.2879566E1,1.9998432E1,1.4753496E1,2.8501698E1,2.562171E1,1.5315046E1,4.6218567E0,-2.2936089E1,9.50536E0,-7.1434984E0,-3.2241123E0,-3.7644585E1,3.2825375E0,-3.472573E0,-7.695397E0,-2.2321379E1,-2.708913E1,1.6196985E0,8.387584E-1,-2.7113304E1,-4.8684983E0,-2.3734882E1,-4.6421722E1,-1.9537205E1,6.1499243E0,1.3789147E0,2.908943E0,1.8737563E0,7.145059E-1,1.8402048E0,1.4917792E0,5.998291E-1,1.7607094E0,1.0450482E0,2.549922E0,1.2054137E0,8.7044317E-1,2.5199306E-1,3.8460794E-1,-2.05972E-1,-6.7937773E-1,-1.9178288E0,5.530636E-1,1.622506E-1,3.9292845E-1,-1.3473912E0,-2.3316438E-1,3.83233E-1,-3.1297262E0,3.3024105E-1,2.2523044E-1,-4.285569E-1,-7.823721E-2,-4.4839555E-1,-1.1485704E0,-1.1075641E-1,-7.925711E-1,-1.7706326E0,-9.6740484E-1,-2.0124893E0,-2.0581477E0,1.5846433E-1,-2.1887825E-1,9.7668236E-1,-8.821322E-1,-2.0595806E0,4.2249974E-2,-8.7943166E-1,-9.837932E-1,-2.6366398E0,-2.0203164E0,-2.798345E0,-2.0026079E-1,-1.5215353E0],"categories":[],"categories_nodes":[],"categories_segments":[],"categories_sizes":[],"default_left":[0,0,0,0,0,0,0,0,0,0,0,0,0,0,0,0,0,0,0,0,0,0,0,0,0,0,0,0,0,0,0,0,0,0,0,0,0,0,0,0,0,0,0,0,0,0,0,0,0,0,0,0,0,0,0,0,0,0,0,0,0,0,0,0,0,0,0,0,0,0,0,0,0,0,0,0,0,0,0,0,0,0,0,0,0,0,0,0,0,0,0,0,0,0,0,0,0,0,0,0,0,0,0,0,0,0,0,0,0],"id":8,"left_children":[1,3,5,7,9,11,13,15,17,19,21,23,25,27,29,31,33,-1,-1,35,37,39,41,43,45,47,49,51,53,55,57,59,-1,-1,-1,61,63,65,67,69,71,73,75,77,79,81,83,85,87,89,91,93,95,97,99,101,103,105,107,-1,-1,-1,-1,-1,-1,-1,-1,-1,-1,-1,-1,-1,-1,-1,-1,-1,-1,-1,-1,-1,-1,-1,-1,-1,-1,-1,-1,-1,-1,-1,-1,-1,-1,-1,-1,-1,-1,-1,-1,-1,-1,-1,-1,-1,-1,-1,-1,-1,-1],"loss_changes":[8.715038E5,9.835849E5,4.5614E5,8.08286E5,7.451344E4,9.8609305E4,9.304169E4,1.2045184E4,2.1342375E4,3.3306625E4,3.2449219E4,8.3220734E4,8.230307E4,3.4555297E4,1.1919025E5,2.6503906E1,5.0147797E1,0E0,0E0,1.465675E4,2.2161531E4,5.6669297E3,1.3710358E4,2.1547242E4,3.194716E4,1.3549894E4,3.6927703E4,1.18415205E4,2.7035406E4,1.5394881E4,3.134175E4,1.9307695E3,0E0,0E0,0E0,1.13799375E4,3.1194805E3,7.6254453E3,1.5641375E4,2.1118398E3,3.4191016E3,5.023634E3,2.3620078E3,1.2568383E4,2.4871557E4,1.1663516E4,3.1325977E4,6.340035E3,9.7991455E3,3.042197E4,2.7559047E4,8.5127734E2,9.478121E3,4.473846E3,2.073954E4,8.445331E3,7.2016484E3,1.7433E4,8.8456E3,0E0,0E0,0E0,0E0,0E0,0E0,0E0,0E0,0E0,0E0,0E0,0E0,0E0,0E0,0E0,0E0,0E0,0E0,0E0,0E0,0E0,0E0,0E0,0E0,0E0,0E0,0E0,0E0,0E0,0E0,0E0,0E0,0E0,0E0,0E0,0E0,0E0,0E0,0E0,0E0,0E0,0E0,0E0,0E0,0E0,0E0,0E0,0E0,0E0,0E0],"parents":[2147483647,0,0,1,1,2,2,3,3,4,4,5,5,6,6,7,7,8,8,9,9,10,10,11,11,12,12,13,13,14,14,15,15,16,16,19,19,20,20,21,21,22,22,23,23,24,24,25,25,26,26,27,27,28,28,29,29,30,30,31,31,35,35,36,36,37,37,38,38,39,39,40,40,41,41,42,42,43,43,44,44,45,45,46,46,47,47,48,48,49,49,50,50,51,51,52,52,53,53,54,54,55,55,56,56,57,57,58,58],"right_children":[2,4,6,8,10,12,14,16,18,20,22,24,26,28,30,32,34,-1,-1,36,38,40,42,44,46,48,50,52,54,56,58,60,-1,-1,-1,62,64,66,68,70,72,74,76,78,80,82,84,86,88,90,92,94,96,98,100,102,104,106,108,-1,-1,-1,-1,-1,-1,-1,-1,-1,-1,-1,-1,-1,-1,-1,-1,-1,-1,-1,-1,-1,-1,-1,-1,-1,-1,-1,-1,-1,-1,-1,-1,-1,-1,-1,-1,-1,-1,-1,-1,-1,-1,-1,-1,-1,-1,-1,-1,-1,-1],"split_conditions":[-2.0413154E4,-7.5E-1,3.8007382E-1,8.3E-1,7.1767694E-1,-1.6352484E4,4.992552E-1,9.594095E-2,-2.603566E4,-8.878852E-1,4.5292333E-1,6.964277E-1,2.3616236E-1,7.3E0,-6.3108796E-1,8.1568426E-1,-2.5155451E4,3.0080053E1,1.1315445E1,-2.1088236E4,2.636655E-1,-2.344943E4,5.8E0,1.7E1,9.95919E-1,-1.4708092E4,4.84805E-1,-9.680771E-1,-9.383774E-1,4.907749E-1,9.025161E-2,-2.574638E4,2.3892324E0,6.463583E-1,1.6079928E-1,1.5129152E-1,1.195E1,1.0332102E-1,2.8782287E-1,-2.45E0,3.6999996E0,7.247928E-1,8.133451E-1,2.915129E-1,1.3616665E-1,1.5855938E-1,4.949495E-1,5.6647396E-1,6.8896693E-1,5.412273E-1,8.7651885E-1,9.859155E-2,1.6802022E-1,8.855219E-1,4.8708487E-1,7.388364E-1,2E1,1E0,8.18042E-1,6.1499243E0,1.3789147E0,2.908943E0,1.8737563E0,7.145059E-1,1.8402048E0,1.4917792E0,5.998291E-1,1.7607094E0,1.0450482E0,2.549922E0,1.2054137E0,8.7044317E-1,2.5199306E-1,3.8460794E-1,-2.05972E-1,-6.7937773E-1,-1.9178288E0,5.530636E-1,1.622506E-1,3.9292845E-1,-1.3473912E0,-2.3316438E-1,3.83233E-1,-3.1297262E0,3.3024105E-1,2.2523044E-1,-4.285569E-1,-7.823721E-2,-4.4839555E-1,-1.1485704E0,-1.1075641E-1,-7.925711E-1,-1.7706326E0,-9.6740484E-1,-2.0124893E0,-2.0581477E0,1.5846433E-1,-2.1887825E-1,9.7668236E-1,-8.821322E-1,-2.0595806E0,4.2249974E-2,-8.7943166E-1,-9.837932E-1,-2.6366398E0,-2.0203164E0,-2.798345E0,-2.0026079E-1,-1.5215353E0],"split_indices":[2,27,17,9,43,2,18,17,2,33,29,29,17,28,33,4,2,0,0,2,43,2,23,26,43,2,18,35,44,17,44,2,0,0,0,17,28,17,17,28,23,35,29,17,33,44,5,14,36,4,4,6,4,5,17,29,26,30,4,0,0,0,0,0,0,0,0,0,0,0,0,0,0,0,0,0,0,0,0,0,0,0,0,0,0,0,0,0,0,0,0,0,0,0,0,0,0,0,0,0,0,0,0,0,0,0,0,0,0],"split_type":[0,0,0,0,0,0,0,0,0,0,0,0,0,0,0,0,0,0,0,0,0,0,0,0,0,0,0,0,0,0,0,0,0,0,0,0,0,0,0,0,0,0,0,0,0,0,0,0,0,0,0,0,0,0,0,0,0,0,0,0,0,0,0,0,0,0,0,0,0,0,0,0,0,0,0,0,0,0,0,0,0,0,0,0,0,0,0,0,0,0,0,0,0,0,0,0,0,0,0,0,0,0,0,0,0,0,0,0,0],"sum_hessian":[6.321E3,1.178E3,5.143E3,1.5E1,1.163E3,4.206E3,9.37E2,9E0,6E0,7.11E2,4.52E2,2.143E3,2.063E3,3.59E2,5.78E2,6E0,3E0,4E0,2E0,2E2,5.11E2,2.48E2,2.04E2,1.375E3,7.68E2,1.369E3,6.94E2,1.55E2,2.04E2,1.84E2,3.94E2,3E0,3E0,1E0,2E0,1.63E2,3.7E1,1.91E2,3.2E2,8.6E1,1.62E2,1.85E2,1.9E1,1.293E3,8.2E1,7.41E2,2.7E1,4.34E2,9.35E2,3.63E2,3.31E2,1.5E1,1.4E2,4.4E1,1.6E2,1.15E2,6.9E1,3.42E2,5.2E1,2E0,1E0,4E1,1.23E2,2.9E1,8E0,2.8E1,1.63E2,1.68E2,1.52E2,3E0,8.3E1,1.34E2,2.8E1,1.37E2,4.8E1,1.3E1,6E0,1.035E3,2.58E2,4.7E1,3.5E1,6.55E2,8.6E1,1.7E1,1E1,3.94E2,4E1,6.95E2,2.4E2,9.5E1,2.68E2,2.23E2,1.08E2,1.1E1,4E0,4E0,1.36E2,3.5E1,9E0,9.7E1,6.3E1,8E1,3.5E1,6.2E1,7E0,2.13E2,1.29E2,2.2E1,3E1],"tree_param":{"num_deleted":"0","num_feature":"45","num_nodes":"109","size_leaf_vector":"1"}},{"base_weights":[2.5804397E-1,-8.915031E0,1.6616245E1,-3.7758355E0,-2.7303988E1,1.7575418E2,1.4912904E1,-1.3527643E1,-7.8206575E-1,-3.912176E1,-1.5290312E1,3.745107E1,5.0628302E2,1.0815751E1,2.8886284E1,-5.6109856E1,-1.2093431E1,-3.5374098E0,4.615468E0,-2.9103971E1,-4.6648758E1,-2.4659573E1,-6.666051E0,4.1950316E0,8.911126E1,2.8876852E1,1.0938263E1,1.281059E1,2.1383743E0,4.5495335E1,2.5827642E1,-7.063809E1,-2.4047457E1,-8.056311E0,-2.7179632E1,-1.8787403E-1,-8.335931E0,-4.3623657E0,5.6992493E0,-4.9519E1,-2.1863588E1,-2.050188E1,-4.9050182E1,-1.8603622E1,-3.9246277E1,-3.5006413E0,-2.6975126E1,1.3843069E0,-1.101129E1,1.3444418E0,9.500019E1,9.095863E0,1.631382E1,5.324257E0,-1.1036803E1,6.926681E1,2.1180761E1,2.8701237E1,1.905754E1,-3.666402E0,-7.5722E-1,-5.3018117E-1,-1.4501051E0,-2.541703E0,-3.6404032E-1,-1.8297595E0,-9.2373484E-1,-5.5656475E-1,2.3630466E-2,-1.1340108E0,-3.0611423E-1,-7.764657E-1,-1.177804E-2,2.2568813E-1,5.300713E-1,-3.0421293E0,-1.679038E0,-6.1426574E-1,-2.048187E0,-1.272959E0,1.21811226E-1,2.2604242E-1,-2.5007043E0,-4.5657483E-1,-1.3447994E0,-4.7785687E-1,-2.2440143E0,4.480865E-2,-7.312053E-1,-6.154485E-1,-1.916454E0,-8.1180567E-1,1.5543938E-1,5.5762506E0,2.0650191E0,1.6774565E-1,5.7161313E-1,3.2010734E0,7.712417E-1,1.7393716E-1,8.45794E-1,-1.3797257E0,8.958232E-2,3.7013817E0,1.5372163E0,1.1200598E0,-6.691602E-2,3.7672982E-1,1.4968685E0,1.1202066E0,5.0947773E-1],"categories":[],"categories_nodes":[],"categories_segments":[],"categories_sizes":[],"default_left":[0,0,0,0,0,0,0,0,0,0,0,0,0,0,0,0,0,0,0,0,0,0,0,0,0,0,0,0,0,0,0,0,0,0,0,0,0,0,0,0,0,0,0,0,0,0,0,0,0,0,0,0,0,0,0,0,0,0,0,0,0,0,0,0,0,0,0,0,0,0,0,0,0,0,0,0,0,0,0,0,0,0,0,0,0,0,0,0,0,0,0,0,0,0,0,0,0,0,0,0,0,0,0,0,0,0,0,0,0,0,0],"id":9,"left_children":[1,3,5,7,9,11,13,15,17,19,21,23,25,27,29,31,33,35,37,39,41,43,45,47,49,-1,-1,51,53,55,57,59,61,63,65,67,69,71,73,75,77,79,81,83,85,87,89,-1,91,-1,93,95,97,99,101,103,105,107,109,-1,-1,-1,-1,-1,-1,-1,-1,-1,-1,-1,-1,-1,-1,-1,-1,-1,-1,-1,-1,-1,-1,-1,-1,-1,-1,-1,-1,-1,-1,-1,-1,-1,-1,-1,-1,-1,-1,-1,-1,-1,-1,-1,-1,-1,-1,-1,-1,-1,-1,-1,-1],"loss_changes":[9.5014656E5,3.8330147E5,6.1405494E5,9.25949E4,1.25191625E5,1.0781551E6,1.2861703E5,4.4820016E4,3.6125695E4,3.2272438E4,3.5469727E4,3.0550414E4,1.7062625E4,3.014389E4,2.4733562E4,9.480773E3,4.3754305E4,2.5843525E4,8.013199E3,2.7592984E4,1.48801875E4,1.7908852E4,1.4755761E4,4.5914194E3,1.0519531E1,0E0,0E0,1.8291797E4,1.3784447E4,4.3616344E4,7.8768125E3,1.2778906E3,2.9195703E2,1.8572441E4,1.1782109E4,6.8573545E3,2.0849992E4,4.0978013E3,4.211953E3,6.980758E3,2.6024E4,2.677377E3,1.215425E4,1.1614895E4,9.774461E3,9.843575E3,4.690293E3,0E0,6.406738E2,0E0,7.182539E2,9.216719E3,2.9887969E4,5.5887744E3,1.3643662E4,4.876625E3,1.1293008E3,7.6762188E3,3.6891484E3,0E0,0E0,0E0,0E0,0E0,0E0,0E0,0E0,0E0,0E0,0E0,0E0,0E0,0E0,0E0,0E0,0E0,0E0,0E0,0E0,0E0,0E0,0E0,0E0,0E0,0E0,0E0,0E0,0E0,0E0,0E0,0E0,0E0,0E0,0E0,0E0,0E0,0E0,0E0,0E0,0E0,0E0,0E0,0E0,0E0,0E0,0E0,0E0,0E0,0E0,0E0,0E0],"parents":[2147483647,0,0,1,1,2,2,3,3,4,4,5,5,6,6,7,7,8,8,9,9,10,10,11,11,12,12,13,13,14,14,15,15,16,16,17,17,18,18,19,19,20,20,21,21,22,22,23,23,24,24,27,27,28,28,29,29,30,30,31,31,32,32,33,33,34,34,35,35,36,36,37,37,38,38,39,39,40,40,41,41,42,42,43,43,44,44,45,45,46,46,48,48,50,50,51,51,52,52,53,53,54,54,55,55,56,56,57,57,58,58],"right_children":[2,4,6,8,10,12,14,16,18,20,22,24,26,28,30,32,34,36,38,40,42,44,46,48,50,-1,-1,52,54,56,58,60,62,64,66,68,70,72,74,76,78,80,82,84,86,88,90,-1,92,-1,94,96,98,100,102,104,106,108,110,-1,-1,-1,-1,-1,-1,-1,-1,-1,-1,-1,-1,-1,-1,-1,-1,-1,-1,-1,-1,-1,-1,-1,-1,-1,-1,-1,-1,-1,-1,-1,-1,-1,-1,-1,-1,-1,-1,-1,-1,-1,-1,-1,-1,-1,-1,-1,-1,-1,-1,-1,-1],"split_conditions":[2.84455E4,3.6531365E-1,-7.5E-1,2.2171E4,2.4542E4,7.5E-1,3.78915E4,1.75E0,2.6159E4,1.2E1,4.9111575E-1,1.8E-1,-2.603566E4,6.758655E-1,-7.247928E-1,2.11865E4,2.98893E-1,2.2509223E-1,-8.660254E-1,2.11115E4,4.3E0,3.9435586E-1,5.313653E-1,4.9856715E-2,3.9346E4,2.8876852E1,1.0938263E1,3.1045E4,6.0000005E0,3.7770796E-1,9.6684784E-1,5.813253E-1,-1.6660559E4,9.45E0,2.0788E4,4.006939E-1,-9.307239E-1,4.0786064E-1,9.422609E-1,1.666E1,-1.8369701E-16,4E0,-9.9966663E-1,-1.8369701E-16,6.25E0,8.210502E-1,1.2246469E-16,1.3843069E0,3.15975E4,1.3444418E0,8.1568426E-1,5.533848E-1,-9.9167734E-1,8.0957365E-1,3.4730524E-1,6.1E-1,1.14450864E-1,3.675689E-1,5.855641E-1,-3.666402E0,-7.5722E-1,-5.3018117E-1,-1.4501051E0,-2.541703E0,-3.6404032E-1,-1.8297595E0,-9.2373484E-1,-5.5656475E-1,2.3630466E-2,-1.1340108E0,-3.0611423E-1,-7.764657E-1,-1.177804E-2,2.2568813E-1,5.300713E-1,-3.0421293E0,-1.679038E0,-6.1426574E-1,-2.048187E0,-1.272959E0,1.21811226E-1,2.2604242E-1,-2.5007043E0,-4.5657483E-1,-1.3447994E0,-4.7785687E-1,-2.2440143E0,4.480865E-2,-7.312053E-1,-6.154485E-1,-1.916454E0,-8.1180567E-1,1.5543938E-1,5.5762506E0,2.0650191E0,1.6774565E-1,5.7161313E-1,3.2010734E0,7.712417E-1,1.7393716E-1,8.45794E-1,-1.3797257E0,8.958232E-2,3.7013817E0,1.5372163E0,1.1200598E0,-6.691602E-2,3.7672982E-1,1.4968685E0,1.1202066E0,5.0947773E-1],"split_indices":[0,17,27,0,0,12,0,28,0,26,19,10,2,29,35,0,17,17,37,0,23,35,17,16,0,0,0,0,23,43,44,3,2,27,0,19,43,19,33,22,38,23,44,38,28,29,37,0,0,0,4,19,44,19,36,11,14,19,29,0,0,0,0,0,0,0,0,0,0,0,0,0,0,0,0,0,0,0,0,0,0,0,0,0,0,0,0,0,0,0,0,0,0,0,0,0,0,0,0,0,0,0,0,0,0,0,0,0,0,0,0],"split_type":[0,0,0,0,0,0,0,0,0,0,0,0,0,0,0,0,0,0,0,0,0,0,0,0,0,0,0,0,0,0,0,0,0,0,0,0,0,0,0,0,0,0,0,0,0,0,0,0,0,0,0,0,0,0,0,0,0,0,0,0,0,0,0,0,0,0,0,0,0,0,0,0,0,0,0,0,0,0,0,0,0,0,0,0,0,0,0,0,0,0,0,0,0,0,0,0,0,0,0,0,0,0,0,0,0,0,0,0,0,0,0],"sum_hessian":[6.33E3,4.056E3,2.274E3,3.171E3,8.85E2,2.3E1,2.251E3,7.44E2,2.427E3,4.45E2,4.4E2,1.7E1,6E0,1.742E3,5.09E2,2.3E1,7.21E2,1.607E3,8.2E2,1.93E2,2.52E2,2.1E2,2.3E2,1.1E1,6E0,4E0,2E0,1.416E3,3.26E2,7.7E1,4.32E2,1.5E1,8E0,5.7E2,1.51E2,9.47E2,6.6E2,8.8E1,7.32E2,4.9E1,1.44E2,2.2E1,2.3E2,1.5E2,6E1,2E2,3E1,4E0,7E0,1E0,5E0,6.89E2,7.27E2,2.63E2,6.3E1,3.8E1,3.9E1,3.01E2,1.31E2,1.4E1,1E0,3E0,5E0,9E0,5.61E2,7.1E1,8E1,5.3E1,8.94E2,8.7E1,5.73E2,2.3E1,6.5E1,5.91E2,1.41E2,2.7E1,2.2E1,9.7E1,4.7E1,1.8E1,4E0,4E0,2.26E2,7.1E1,7.9E1,1E1,5E1,1.44E2,5.6E1,1.4E1,1.6E1,5E0,2E0,3E0,2E0,2E2,4.89E2,1.2E1,7.15E2,2.28E2,3.5E1,2.7E1,3.6E1,3.3E1,5E0,3.7E1,2E0,1.7E1,2.84E2,9.4E1,3.7E1],"tree_param":{"num_deleted":"0","num_feature":"45","num_nodes":"111","size_leaf_vector":"1"}},{"base_weights":[-6.6232355E-3,2.5273302E1,-4.4939866E0,2.7271213E2,2.1268099E1,1.0570772E0,-1.7782606E1,7.6009415E1,4.866567E2,2.7201475E1,1.1352352E1,7.8419337E0,-2.454738E0,-1.0376165E1,-2.6510075E1,4.1266317E0,5.955917E-1,2.7721777E1,1.0573654E1,3.983022E1,2.2774027E1,1.8023046E1,2.080908E0,1.1506477E1,8.3502954E-1,-4.081226E0,5.099224E0,-1.4919371E1,3.762027E0,-1.0720297E1,-3.1861021E1,5.490687E1,3.4587532E1,1.5669949E1,2.8504677E1,2.4460157E1,1.4249234E1,4.5735016E0,-2.210345E1,1.21623535E1,-2.7078066E0,-8.325402E-1,7.276233E0,-1.5733451E1,-2.8285313E0,-1.8191252E1,6.4866343E0,4.8492074E0,-1.9309092E1,1.3019292E0,1.7766394E1,1.882699E0,-2.1325642E1,-1.7776342E1,-3.9375717E1,2.2593083E0,5.404108E0,1.5857434E0,4.0504813E0,1.376305E0,6.806447E-1,1.971438E0,9.898511E-1,2.3981674E0,1.1395763E0,7.570415E-1,-1.8538623E-1,2.8352556E-1,-8.1480855E-1,-1.1140181E-1,-1.6448895E0,7.347167E-1,4.8032674E-1,5.710661E-1,-1.3872489E0,1.05166756E-1,-2.6466593E-1,2.7453205E-1,1.5828509E0,-1.573238E-1,-1.5100818E0,-3.1258225E-2,-3.8968736E-1,5.153034E-1,-1.7432562E0,1.6518375E-1,6.054529E-1,1.1708113E-1,1.0955924E0,-1.7335223E0,-6.146397E-1,1.2969144E-1,-9.2736286E-1,1.0589342E0,5.2993554E-1,-1.826381E-1,3.9561427E-1,-3.3436403E-2,-1.2925966E0,-6.414198E-1,-3.0686135E0,-3.593358E-2,-2.1046257E0],"categories":[],"categories_nodes":[],"categories_segments":[],"categories_sizes":[],"default_left":[0,0,0,0,0,0,0,0,0,0,0,0,0,0,0,0,0,0,0,0,0,0,0,0,0,0,0,0,0,0,0,0,0,0,0,0,0,0,0,0,0,0,0,0,0,0,0,0,0,0,0,0,0,0,0,0,0,0,0,0,0,0,0,0,0,0,0,0,0,0,0,0,0,0,0,0,0,0,0,0,0,0,0,0,0,0,0,0,0,0,0,0,0,0,0,0,0,0,0,0,0,0,0],"id":10,"left_children":[1,3,5,7,9,11,13,15,17,19,21,23,25,27,29,-1,-1,-1,-1,31,33,35,37,39,41,43,45,47,49,51,53,55,57,59,61,63,65,67,69,71,73,75,77,79,81,83,85,87,89,91,93,95,97,99,101,-1,-1,-1,-1,-1,-1,-1,-1,-1,-1,-1,-1,-1,-1,-1,-1,-1,-1,-1,-1,-1,-1,-1,-1,-1,-1,-1,-1,-1,-1,-1,-1,-1,-1,-1,-1,-1,-1,-1,-1,-1,-1,-1,-1,-1,-1,-1,-1],"loss_changes":[7.1263156E5,9.327176E5,3.9356025E5,5.942616E5,5.4583188E4,8.9704695E4,1.0133822E5,2.7799883E3,1.331325E4,3.169025E4,2.1670781E4,3.295979E4,3.050344E4,5.47824E4,6.0576E4,0E0,0E0,0E0,0E0,9.957234E3,1.7221906E4,4.607125E3,9.022793E3,7.8920625E3,4.753649E3,2.9761918E4,1.4335917E4,5.6065812E4,7.142909E3,2.4633428E4,5.6243E4,1.4241547E4,1.263325E4,4.4054844E3,2.1953844E4,1.8089844E3,2.1534922E3,3.1831284E3,2.9302896E3,5.0746953E3,1.3759512E4,4.6210264E3,3.7877905E3,3.596289E4,2.0179781E4,1.2238338E4,7.404709E3,4.9974404E3,5.6481547E4,4.61259E3,5.337373E2,2.8659075E3,9.332625E3,3.9981953E4,3.6728E4,0E0,0E0,0E0,0E0,0E0,0E0,0E0,0E0,0E0,0E0,0E0,0E0,0E0,0E0,0E0,0E0,0E0,0E0,0E0,0E0,0E0,0E0,0E0,0E0,0E0,0E0,0E0,0E0,0E0,0E0,0E0,0E0,0E0,0E0,0E0,0E0,0E0,0E0,0E0,0E0,0E0,0E0,0E0,0E0,0E0,0E0,0E0,0E0],"parents":[2147483647,0,0,1,1,2,2,3,3,4,4,5,5,6,6,7,7,8,8,9,9,10,10,11,11,12,12,13,13,14,14,19,19,20,20,21,21,22,22,23,23,24,24,25,25,26,26,27,27,28,28,29,29,30,30,31,31,32,32,33,33,34,34,35,35,36,36,37,37,38,38,39,39,40,40,41,41,42,42,43,43,44,44,45,45,46,46,47,47,48,48,49,49,50,50,51,51,52,52,53,53,54,54],"right_children":[2,4,6,8,10,12,14,16,18,20,22,24,26,28,30,-1,-1,-1,-1,32,34,36,38,40,42,44,46,48,50,52,54,56,58,60,62,64,66,68,70,72,74,76,78,80,82,84,86,88,90,92,94,96,98,100,102,-1,-1,-1,-1,-1,-1,-1,-1,-1,-1,-1,-1,-1,-1,-1,-1,-1,-1,-1,-1,-1,-1,-1,-1,-1,-1,-1,-1,-1,-1,-1,-1,-1,-1,-1,-1,-1,-1,-1,-1,-1,-1,-1,-1,-1,-1,-1,-1],"split_conditions":[-2.1088236E4,-7.5E-1,3.2472324E-1,8.3E-1,6.9328123E-1,-1.73692E4,4.3999996E0,9.594095E-2,-2.603566E4,-8.878852E-1,4.5899907E-1,6.3404226E-1,1.4154029E-1,9.025161E-2,-6.3108796E-1,4.1266317E0,5.955917E-1,2.7721777E1,1.0573654E1,1.5129152E-1,3.1310704E-1,-2.378382E4,4.9374056E-1,1.7E1,1.7553149E-1,1.22E1,3.3394414E-1,-8.169699E-1,9.189578E-1,4.3542436E-1,7.39E0,5.346386E-1,1.492E1,1.0332102E-1,1.5142778E-1,-2.45E0,7.65E0,5.8E0,-2.5065252E-1,-1.8692703E4,-1.3616665E-1,8.596379E-1,6.936027E-1,1.416E1,2.2878228E-1,3.9359027E-1,6.2541056E-1,1.195E1,1E0,3.6000001E0,6.586118E-1,4.8903412E-1,-7.587581E-1,8.5858583E-1,1.1E1,2.2593083E0,5.404108E0,1.5857434E0,4.0504813E0,1.376305E0,6.806447E-1,1.971438E0,9.898511E-1,2.3981674E0,1.1395763E0,7.570415E-1,-1.8538623E-1,2.8352556E-1,-8.1480855E-1,-1.1140181E-1,-1.6448895E0,7.347167E-1,4.8032674E-1,5.710661E-1,-1.3872489E0,1.05166756E-1,-2.6466593E-1,2.7453205E-1,1.5828509E0,-1.573238E-1,-1.5100818E0,-3.1258225E-2,-3.8968736E-1,5.153034E-1,-1.7432562E0,1.6518375E-1,6.054529E-1,1.1708113E-1,1.0955924E0,-1.7335223E0,-6.146397E-1,1.2969144E-1,-9.2736286E-1,1.0589342E0,5.2993554E-1,-1.826381E-1,3.9561427E-1,-3.3436403E-2,-1.2925966E0,-6.414198E-1,-3.0686135E0,-3.593358E-2,-2.1046257E0],"split_indices":[2,27,17,9,43,2,24,17,2,33,29,29,44,44,33,0,0,0,0,17,43,2,16,26,44,27,19,33,36,17,22,3,22,17,36,28,28,23,36,2,33,29,5,22,17,43,44,28,32,24,29,19,36,5,26,0,0,0,0,0,0,0,0,0,0,0,0,0,0,0,0,0,0,0,0,0,0,0,0,0,0,0,0,0,0,0,0,0,0,0,0,0,0,0,0,0,0,0,0,0,0,0,0],"split_type":[0,0,0,0,0,0,0,0,0,0,0,0,0,0,0,0,0,0,0,0,0,0,0,0,0,0,0,0,0,0,0,0,0,0,0,0,0,0,0,0,0,0,0,0,0,0,0,0,0,0,0,0,0,0,0,0,0,0,0,0,0,0,0,0,0,0,0,0,0,0,0,0,0,0,0,0,0,0,0,0,0,0,0,0,0,0,0,0,0,0,0,0,0,0,0,0,0,0,0,0,0,0,0],"sum_hessian":[6.28E3,9.46E2,5.334E3,1.4E1,9.32E2,3.763E3,1.571E3,8E0,6E0,5.82E2,3.5E2,1.283E3,2.48E3,8.51E2,7.2E2,7E0,1E0,4E0,2E0,1.49E2,4.33E2,2.03E2,1.47E2,8.42E2,4.41E2,2.041E3,4.39E2,6.44E2,2.07E2,1.83E2,5.37E2,3.6E1,1.13E2,1.95E2,2.38E2,7.3E1,1.3E2,1.34E2,1.3E1,8.05E2,3.7E1,3.51E2,9E1,1.97E2,1.844E3,2.4E1,4.15E2,1.17E2,5.27E2,1.77E2,3E1,8.4E1,9.9E1,1.88E2,3.49E2,3.2E1,4E0,1.08E2,5E0,2.7E1,1.68E2,1.04E2,1.34E2,3E0,7E1,1.24E2,6E0,1.28E2,6E0,5E0,8E0,4.02E2,4.03E2,2.4E1,1.3E1,2.12E2,1.39E2,8.5E1,5E0,1.06E2,9.1E1,1.278E3,5.66E2,9E0,1.5E1,2.66E2,1.49E2,1.03E2,1.4E1,1.64E2,3.63E2,1.67E2,1E1,1.9E1,1.1E1,4.4E1,4E1,1.8E1,8.1E1,1.7E2,1.8E1,2.3E1,3.26E2],"tree_param":{"num_deleted":"0","num_feature":"45","num_nodes":"103","size_leaf_vector":"1"}},{"base_weights":[-1.0885321E-1,-7.7912445E0,1.5698188E1,-3.4420538E0,-2.5593555E1,1.4258151E2,1.4377869E1,-8.644009E0,2.3245888E0,-3.992201E1,-1.6303198E1,3.6704315E1,2.0057856E1,9.213658E0,2.32729E1,-4.207407E0,-1.5868548E1,-1.2887384E1,3.0975714E0,-1.2387192E1,-4.1591206E1,-2.525182E1,-7.740789E0,1.0453228E0,8.240226E1,1.1155567E1,-1.1407598E0,1.9595692E1,3.1319502E1,-1.628012E1,-3.4502726E0,-3.3109882E1,-1.2250924E1,-4.4974632E1,-4.5336804E0,9.640428E0,1.9165661E0,3.3518512E0,-1.8207369E0,-2.71999E1,-4.396825E1,-1.1324935E1,-3.2020016E1,-4.6226387E0,-3.0525166E1,-6.9629335E-1,1.3347095E1,1.2076648E0,8.808487E1,1.7999607E1,9.651185E0,-1.7837877E1,2.1858063E0,1.8934416E1,5.45968E1,5.7084846E1,2.6759998E1,-1.4808781E-1,-1.7457396E0,-9.263204E-2,-3.983085E-1,-2.7272856E0,-1.2019656E0,-3.9013296E-1,-1.267641E0,-1.1449988E0,-2.5212262E0,4.7065654E-1,-1.2371554E0,3.463196E-1,6.8044615E-1,-5.905008E-2,2.0196949E-1,4.0699974E-1,-1.7954908E-1,-1.9393631E0,-1.5246974E-1,-2.3907936E-1,-2.2279778E0,6.96477E-1,-7.5129837E-1,-6.432908E-1,-1.8090603E0,1.7472398E-2,-5.6362826E-1,-1.9629288E0,-6.712859E-1,1.2808622E-1,9.049674E-1,5.2123923E0,1.8586305E0,5.575973E-1,1.140471E0,6.6613674E-1,3.6677527E-1,2.4925184E-1,-1.1969781E0,-2.901737E-1,2.5861445E-1,8.8927394E-1,1.5765625E0,9.359128E-1,4.738271E0,3.7008271E0,1.7899618E0,1.4645919E0,6.315796E-1],"categories":[],"categories_nodes":[],"categories_segments":[],"categories_sizes":[],"default_left":[0,0,0,0,0,0,0,0,0,0,0,0,0,0,0,0,0,0,0,0,0,0,0,0,0,0,0,0,0,0,0,0,0,0,0,0,0,0,0,0,0,0,0,0,0,0,0,0,0,0,0,0,0,0,0,0,0,0,0,0,0,0,0,0,0,0,0,0,0,0,0,0,0,0,0,0,0,0,0,0,0,0,0,0,0,0,0,0,0,0,0,0,0,0,0,0,0,0,0,0,0,0,0,0,0,0,0],"id":11,"left_children":[1,3,5,7,9,11,13,15,17,19,21,23,-1,25,27,29,31,33,35,37,39,41,43,45,47,49,51,53,55,57,59,61,63,65,67,69,71,73,-1,75,77,79,81,83,85,-1,87,-1,89,91,93,95,97,99,101,103,105,-1,-1,-1,-1,-1,-1,-1,-1,-1,-1,-1,-1,-1,-1,-1,-1,-1,-1,-1,-1,-1,-1,-1,-1,-1,-1,-1,-1,-1,-1,-1,-1,-1,-1,-1,-1,-1,-1,-1,-1,-1,-1,-1,-1,-1,-1,-1,-1,-1,-1],"loss_changes":[7.6116094E5,3.264933E5,3.4137925E5,1.0174269E5,1.0956956E5,5.601982E5,9.303528E4,5.708267E4,1.8959492E4,1.4422219E4,3.842189E4,2.5986543E4,0E0,2.5870742E4,2.1430094E4,1.0053404E4,4.1883047E4,2.0703797E4,1.1819512E4,7.6854683E3,9.2719375E3,2.2825328E4,1.8259576E4,2.0275914E3,1.895039E2,1.0976922E4,1.136998E4,1.0862969E4,2.5727125E4,1.602851E4,7.503002E3,2.1437695E4,3.2555938E4,7.701504E2,1.7989906E4,2.4260684E3,8.54646E3,4.6139325E2,0E0,1.2754391E4,5.834625E3,7.8736484E3,1.26856875E4,7.575597E3,4.1023574E3,0E0,2.6116333E2,0E0,1.0621953E3,6.135207E3,7.469172E3,4.854117E3,4.1100513E3,6.7625312E3,1.1196881E4,9.603922E3,6.7483906E3,0E0,0E0,0E0,0E0,0E0,0E0,0E0,0E0,0E0,0E0,0E0,0E0,0E0,0E0,0E0,0E0,0E0,0E0,0E0,0E0,0E0,0E0,0E0,0E0,0E0,0E0,0E0,0E0,0E0,0E0,0E0,0E0,0E0,0E0,0E0,0E0,0E0,0E0,0E0,0E0,0E0,0E0,0E0,0E0,0E0,0E0,0E0,0E0,0E0,0E0],"parents":[2147483647,0,0,1,1,2,2,3,3,4,4,5,5,6,6,7,7,8,8,9,9,10,10,11,11,13,13,14,14,15,15,16,16,17,17,18,18,19,19,20,20,21,21,22,22,23,23,24,24,25,25,26,26,27,27,28,28,29,29,30,30,31,31,32,32,33,33,34,34,35,35,36,36,37,37,39,39,40,40,41,41,42,42,43,43,44,44,46,46,48,48,49,49,50,50,51,51,52,52,53,53,54,54,55,55,56,56],"right_children":[2,4,6,8,10,12,14,16,18,20,22,24,-1,26,28,30,32,34,36,38,40,42,44,46,48,50,52,54,56,58,60,62,64,66,68,70,72,74,-1,76,78,80,82,84,86,-1,88,-1,90,92,94,96,98,100,102,104,106,-1,-1,-1,-1,-1,-1,-1,-1,-1,-1,-1,-1,-1,-1,-1,-1,-1,-1,-1,-1,-1,-1,-1,-1,-1,-1,-1,-1,-1,-1,-1,-1,-1,-1,-1,-1,-1,-1,-1,-1,-1,-1,-1,-1,-1,-1,-1,-1,-1,-1],"split_conditions":[2.8894E4,3.8007382E-1,-7.5E-1,2.4493E4,2.3782E4,8.3E-1,3.5156E4,2.4723245E-1,3.6336437E-1,5.1E1,4.8903412E-1,1.8E-1,2.0057856E1,3.8745388E-1,4.07345E4,1.75E0,2.04235E4,-9.307239E-1,3.3283132E-1,7.1428275E-1,4.0590402E-1,5.5E0,5.4900944E-1,3.15975E4,3.9346E4,-9.422609E-1,1.83E0,6.6498315E-1,-7.247928E-1,1E0,6.8896693E-1,1.395E1,4.899999E0,-1.7761236E4,3.9359027E-1,9.9E-1,2.61025E4,5.6647396E-1,-1.8207369E0,1.859558E-1,-8.878852E-1,4.6632996E-1,-8.743466E-1,1.2246469E-16,2.6252E4,-6.9629335E-1,1E-2,1.2076648E0,8.1568426E-1,3.096E4,3.5993975E-1,3.3734939E-1,2.9762E4,8.878852E-1,3.611E4,3E-1,8E0,-1.4808781E-1,-1.7457396E0,-9.263204E-2,-3.983085E-1,-2.7272856E0,-1.2019656E0,-3.9013296E-1,-1.267641E0,-1.1449988E0,-2.5212262E0,4.7065654E-1,-1.2371554E0,3.463196E-1,6.8044615E-1,-5.905008E-2,2.0196949E-1,4.0699974E-1,-1.7954908E-1,-1.9393631E0,-1.5246974E-1,-2.3907936E-1,-2.2279778E0,6.96477E-1,-7.5129837E-1,-6.432908E-1,-1.8090603E0,1.7472398E-2,-5.6362826E-1,-1.9629288E0,-6.712859E-1,1.2808622E-1,9.049674E-1,5.2123923E0,1.8586305E0,5.575973E-1,1.140471E0,6.6613674E-1,3.6677527E-1,2.4925184E-1,-1.1969781E0,-2.901737E-1,2.5861445E-1,8.8927394E-1,1.5765625E0,9.359128E-1,4.738271E0,3.7008271E0,1.7899618E0,1.4645919E0,6.315796E-1],"split_indices":[0,17,27,0,0,9,0,17,19,21,19,10,0,17,0,28,0,43,3,19,17,23,16,0,0,33,22,5,35,30,36,27,23,2,43,9,0,14,0,15,33,5,36,41,0,0,9,0,4,0,3,3,0,33,0,23,26,0,0,0,0,0,0,0,0,0,0,0,0,0,0,0,0,0,0,0,0,0,0,0,0,0,0,0,0,0,0,0,0,0,0,0,0,0,0,0,0,0,0,0,0,0,0,0,0,0,0],"split_type":[0,0,0,0,0,0,0,0,0,0,0,0,0,0,0,0,0,0,0,0,0,0,0,0,0,0,0,0,0,0,0,0,0,0,0,0,0,0,0,0,0,0,0,0,0,0,0,0,0,0,0,0,0,0,0,0,0,0,0,0,0,0,0,0,0,0,0,0,0,0,0,0,0,0,0,0,0,0,0,0,0,0,0,0,0,0,0,0,0,0,0,0,0,0,0,0,0,0,0,0,0,0,0,0,0,0,0],"sum_hessian":[6.266E3,4.217E3,2.049E3,3.39E3,8.27E2,2E1,2.029E3,1.782E3,1.608E3,3.24E2,5.03E2,1.5E1,5E0,1.285E3,7.44E2,1.105E3,6.77E2,7.7E1,1.531E3,1.9E1,3.05E2,2.45E2,2.58E2,9E0,6E0,1.082E3,2.03E2,5.13E2,2.31E2,6.4E1,1.041E3,1.16E2,5.61E2,1.5E1,6.2E1,2.33E2,1.298E3,1.2E1,7E0,4.5E1,2.6E2,8.1E1,1.64E2,2.28E2,3E1,4E0,5E0,1E0,5E0,1.93E2,8.89E2,3.3E1,1.7E2,5.05E2,8E0,3.3E1,1.98E2,3.8E1,2.6E1,7.7E2,2.71E2,3.3E1,8.3E1,4.2E2,1.41E2,4E0,1.1E1,3.7E1,2.5E1,1.4E2,9.3E1,5.28E2,7.7E2,7E0,5E0,3E1,1.5E1,4E0,2.56E2,1E1,7.1E1,3E1,1.34E2,1.31E2,9.7E1,1.9E1,1.1E1,2E0,3E0,3E0,2E0,8.1E1,1.12E2,3.42E2,5.47E2,7E0,2.6E1,4.6E1,1.24E2,4.65E2,4E1,5E0,3E0,1.7E1,1.6E1,1.67E2,3.1E1],"tree_param":{"num_deleted":"0","num_feature":"45","num_nodes":"107","size_leaf_vector":"1"}},{"base_weights":[1.749592E-1,-7.421563E0,1.4989701E1,-2.8133056E0,-2.2294641E1,1.5086275E2,1.3499397E1,-1.1582447E1,-3.2899666E-1,-3.0802317E1,-9.7864275E0,3.314338E1,2.3943853E1,9.362112E0,2.3779163E1,-4.6388203E1,-1.0595801E1,-1.6971775E1,3.7248117E-1,-2.1396389E1,-3.7210453E1,-7.0176272E0,-3.0881403E1,3.360593E0,7.946482E1,1.1303255E1,9.4713134E-1,3.7099552E1,2.1526114E1,-5.4368324E1,-6.5851015E-1,-5.7701674E0,-1.7379045E1,-9.18561E0,-4.5825176E1,-2.0818195E0,4.8130174E0,-5.6160564E1,-1.707272E1,-2.4426008E1,-4.195187E1,-1.5343244E1,-3.8055974E-1,-1.0606664E0,-3.4492207E1,2.1532743E1,-1.269562E1,1.1774733E0,8.485913E1,8.285627E0,1.40254965E1,2.123209E0,-2.5789557E1,6.221893E1,1.8640781E1,2.9554052E1,1.9037626E1,-3.0388398E0,-1.0775412E0,-3.0379379E0,-2.174526E-1,-5.402904E-1,-1.9851502E0,-1.5948789E0,-1.0386681E-1,-2.3652933E0,-4.0528393E-1,5.0701704E-2,-2.6078343E-1,3.2062513E-1,3.533579E-2,-3.1578605E0,-7.0715994E-1,-5.258635E-1,-1.3353689E0,-5.8742315E-1,-1.7463616E0,-1.9501928E0,-2.7290232E0,-3.1944278E-1,-1.0969151E0,5.637855E-1,-1.941286E-1,-4.3468782E-1,4.735171E-1,-1.9332867E0,-6.2216026E-1,1.4650325E-1,1.2333633E0,-7.536517E-1,3.9221574E-2,5.0169277E0,1.7966765E0,2.254237E-1,4.9166092E-1,2.683451E0,6.656089E-1,1.0719069E-3,5.7273215E-1,-2.514219E-1,-1.6075608E0,4.320026E0,2.6112087E0,1.05835E0,3.7651315E-1,1.4317425E0,3.496458E0,1.3225062E0,8.0978507E-1],"categories":[],"categories_nodes":[],"categories_segments":[],"categories_sizes":[],"default_left":[0,0,0,0,0,0,0,0,0,0,0,0,0,0,0,0,0,0,0,0,0,0,0,0,0,0,0,0,0,0,0,0,0,0,0,0,0,0,0,0,0,0,0,0,0,0,0,0,0,0,0,0,0,0,0,0,0,0,0,0,0,0,0,0,0,0,0,0,0,0,0,0,0,0,0,0,0,0,0,0,0,0,0,0,0,0,0,0,0,0,0,0,0,0,0,0,0,0,0,0,0,0,0,0,0,0,0,0,0],"id":12,"left_children":[1,3,5,7,9,11,13,15,17,19,21,23,-1,25,27,29,31,33,35,37,39,41,43,45,47,49,51,53,55,57,-1,59,61,63,65,67,69,71,73,75,77,79,81,83,85,87,89,-1,91,93,95,97,99,101,103,105,107,-1,-1,-1,-1,-1,-1,-1,-1,-1,-1,-1,-1,-1,-1,-1,-1,-1,-1,-1,-1,-1,-1,-1,-1,-1,-1,-1,-1,-1,-1,-1,-1,-1,-1,-1,-1,-1,-1,-1,-1,-1,-1,-1,-1,-1,-1,-1,-1,-1,-1,-1,-1],"loss_changes":[7.068657E5,2.845111E5,4.290692E5,6.9077234E4,1.04198875E5,8.722421E5,8.938878E4,2.3547133E4,2.8865783E4,3.4404125E4,2.3087984E4,2.4565418E4,0E0,2.4556656E4,1.7328312E4,4.320547E3,2.2223938E4,2.2044803E4,2.5871953E4,3.4964984E4,1.9948562E4,1.9555377E4,4.9165547E3,3.7746826E3,1.1298828E2,9.9221875E3,8.953528E3,3.8716055E4,9.805672E3,1.8448594E3,0E0,3.0993803E4,4.1098586E4,1.2849169E4,7.894219E2,1.4839553E4,5.5454004E3,6.75025E3,1.3235246E4,1.2370109E4,7.2156875E3,9.13143E3,8.1262183E3,5.6463763E2,3.2917773E3,2.7758643E2,2.3615747E2,0E0,9.3852344E2,3.3577422E3,1.7412031E4,5.334364E3,1.4232314E3,4.1886094E3,1.2720547E3,2.4882422E3,7.9768438E3,0E0,0E0,0E0,0E0,0E0,0E0,0E0,0E0,0E0,0E0,0E0,0E0,0E0,0E0,0E0,0E0,0E0,0E0,0E0,0E0,0E0,0E0,0E0,0E0,0E0,0E0,0E0,0E0,0E0,0E0,0E0,0E0,0E0,0E0,0E0,0E0,0E0,0E0,0E0,0E0,0E0,0E0,0E0,0E0,0E0,0E0,0E0,0E0,0E0,0E0,0E0,0E0],"parents":[2147483647,0,0,1,1,2,2,3,3,4,4,5,5,6,6,7,7,8,8,9,9,10,10,11,11,13,13,14,14,15,15,16,16,17,17,18,18,19,19,20,20,21,21,22,22,23,23,24,24,25,25,26,26,27,27,28,28,29,29,31,31,32,32,33,33,34,34,35,35,36,36,37,37,38,38,39,39,40,40,41,41,42,42,43,43,44,44,45,45,46,46,48,48,49,49,50,50,51,51,52,52,53,53,54,54,55,55,56,56],"right_children":[2,4,6,8,10,12,14,16,18,20,22,24,-1,26,28,30,32,34,36,38,40,42,44,46,48,50,52,54,56,58,-1,60,62,64,66,68,70,72,74,76,78,80,82,84,86,88,90,-1,92,94,96,98,100,102,104,106,108,-1,-1,-1,-1,-1,-1,-1,-1,-1,-1,-1,-1,-1,-1,-1,-1,-1,-1,-1,-1,-1,-1,-1,-1,-1,-1,-1,-1,-1,-1,-1,-1,-1,-1,-1,-1,-1,-1,-1,-1,-1,-1,-1,-1,-1,-1,-1,-1,-1,-1,-1,-1],"split_conditions":[2.86955E4,3.525402E-1,-7.5E-1,2.2126E4,2.5145E4,8.3E-1,3.6702E4,1.75E0,3.6336437E-1,5.5787796E-1,5.4900944E-1,1.8E-1,2.3943853E1,6.812859E-1,-7.247928E-1,5.813253E-1,5.0070417E-1,1.0400001E1,2.61025E4,1.99375E4,-3.9840108E-1,4.9111575E-1,-6.1210597E-1,1.0140156E-1,3.9346E4,3.1045E4,7.6266104E-1,3.7770796E-1,-9.422609E-1,7.30836E-1,-6.5851015E-1,9.45E0,4.899999E0,-4.8530197E-1,2.84015E4,4.788018E-1,6.3404226E-1,-1.5158931E4,3.9435586E-1,4.465027E-1,1.38E1,5.5E0,3.35E0,4.7357842E-1,1.62E1,1E-2,3.15975E4,1.1774733E0,8.1568426E-1,5.533848E-1,-9.9167734E-1,7.0252746E-1,8.210502E-1,-8.878852E-1,-2.3551275E4,6.6498315E-1,3.4540197E-1,-3.0388398E0,-1.0775412E0,-3.0379379E0,-2.174526E-1,-5.402904E-1,-1.9851502E0,-1.5948789E0,-1.0386681E-1,-2.3652933E0,-4.0528393E-1,5.0701704E-2,-2.6078343E-1,3.2062513E-1,3.533579E-2,-3.1578605E0,-7.0715994E-1,-5.258635E-1,-1.3353689E0,-5.8742315E-1,-1.7463616E0,-1.9501928E0,-2.7290232E0,-3.1944278E-1,-1.0969151E0,5.637855E-1,-1.941286E-1,-4.3468782E-1,4.735171E-1,-1.9332867E0,-6.2216026E-1,1.4650325E-1,1.2333633E0,-7.536517E-1,3.9221574E-2,5.0169277E0,1.7966765E0,2.254237E-1,4.9166092E-1,2.683451E0,6.656089E-1,1.0719069E-3,5.7273215E-1,-2.514219E-1,-1.6075608E0,4.320026E0,2.6112087E0,1.05835E0,3.7651315E-1,1.4317425E0,3.496458E0,1.3225062E0,8.0978507E-1],"split_indices":[0,16,27,0,0,9,0,28,19,18,16,10,0,29,35,3,18,24,0,0,33,19,36,16,0,0,16,43,33,33,0,27,23,35,0,18,29,2,35,16,23,24,28,19,23,9,0,0,4,19,44,44,29,33,2,5,18,0,0,0,0,0,0,0,0,0,0,0,0,0,0,0,0,0,0,0,0,0,0,0,0,0,0,0,0,0,0,0,0,0,0,0,0,0,0,0,0,0,0,0,0,0,0,0,0,0,0,0,0],"split_type":[0,0,0,0,0,0,0,0,0,0,0,0,0,0,0,0,0,0,0,0,0,0,0,0,0,0,0,0,0,0,0,0,0,0,0,0,0,0,0,0,0,0,0,0,0,0,0,0,0,0,0,0,0,0,0,0,0,0,0,0,0,0,0,0,0,0,0,0,0,0,0,0,0,0,0,0,0,0,0,0,0,0,0,0,0,0,0,0,0,0,0,0,0,0,0,0,0,0,0,0,0,0,0,0,0,0,0,0,0],"sum_hessian":[6.279E3,4.151E3,2.128E3,3.17E3,9.81E2,2.2E1,2.106E3,6.99E2,2.471E3,5.83E2,3.98E2,1.7E1,5E0,1.503E3,6.03E2,1.8E1,6.81E2,9.9E1,2.372E3,2.38E2,3.45E2,3.53E2,4.5E1,1.1E1,6E0,1.221E3,2.82E2,8.5E1,5.18E2,1.4E1,4E0,3.99E2,2.82E2,7.9E1,2E1,1.528E3,8.44E2,2.5E1,2.13E2,9.5E1,2.5E2,1.56E2,1.97E2,5E0,4E1,5E0,6E0,1E0,5E0,5.81E2,6.4E2,2.71E2,1.1E1,3.5E1,5E1,1.2E2,3.98E2,1.1E1,3E0,9E0,3.9E2,2.19E2,6.3E1,1.8E1,6.1E1,1.9E1,1E0,7.69E2,7.59E2,6.07E2,2.37E2,2.1E1,4E0,1.28E2,8.5E1,4.4E1,5.1E1,2.06E2,4.4E1,6.7E1,8.9E1,4.5E1,1.52E2,3E0,2E0,3.3E1,7E0,1E0,4E0,5E0,1E0,3E0,2E0,1.7E2,4.11E2,1E1,6.3E2,2.22E2,4.9E1,3E0,8E0,8E0,2.7E1,4E1,1E1,1.19E2,1E0,1.08E2,2.9E2],"tree_param":{"num_deleted":"0","num_feature":"45","num_nodes":"109","size_leaf_vector":"1"}},{"base_weights":[-1.2172492E-1,-1.000201E1,1.00130825E1,-4.824018E0,-2.5940868E1,1.2791876E2,9.207499E0,-1.5478465E1,-2.9478946E0,-1.7100037E1,-3.230443E1,2.8551718E1,4.4018295E2,5.5021644E0,2.0863937E1,-5.1583282E1,-1.2513469E1,6.8665737E-1,-6.7913475E0,-3.4031548E1,-9.557755E0,-1.803612E1,-3.8433296E1,7.172127E1,-8.839092E0,2.4298819E1,6.425232E0,7.746936E0,-5.1000066E0,1.6416882E1,2.7246462E1,2.9287922E0,-6.4105515E1,-4.9460063E0,-2.3359047E1,-2.5097424E1,1.261194E0,-2.4431566E1,-4.8149934E0,1.5573733E1,-3.677738E1,-4.2484264E0,-2.4783813E1,-1.575943E0,-2.8924479E1,-2.8328793E1,-4.3186512E1,1.2719598E0,8.290876E1,-1.5732959E1,5.434948E0,5.058114E0,1.11413965E1,4.8597536E0,-8.813696E0,1.5720859E1,5.212398E1,4.666006E1,2.3693289E1,3.6364967E-1,-1.9198698E-1,-3.4533794E0,-1.6710478E0,-1.0408904E-1,-9.6020263E-1,-1.026875E0,-3.3144646E0,-3.4912387E-1,-2.9095068E0,3.891851E-3,3.949057E-1,-2.2689357E0,-2.4997962E-1,-4.8039636E-1,-6.970202E-2,-3.6561996E-1,1.080672E0,-8.039219E-1,-2.1356924E0,-1.4928799E0,-1.1505931E-1,-8.467645E-1,-2.0860078E0,-9.858371E-1,1.158666E-1,-5.161583E-1,-1.8382151E0,-8.9033365E-1,-2.086438E0,1.9920026E-1,-2.2054179E0,4.8287935E0,1.852485E0,-1.9609146E-1,-8.5239214E-1,3.3683586E-1,3.8241006E-2,-1.3471876E-1,3.0235815E-1,5.13658E-1,1.326104E0,2.8363806E-1,-9.2548174E-1,-1.3768319E0,-2.737542E-1,7.195713E-1,1.4056479E0,5.697264E-1,4.50024E0,2.935558E0,8.9201945E-1,1.3023676E0,6.536431E-1],"categories":[],"categories_nodes":[],"categories_segments":[],"categories_sizes":[],"default_left":[0,0,0,0,0,0,0,0,0,0,0,0,0,0,0,0,0,0,0,0,0,0,0,0,0,0,0,0,0,0,0,0,0,0,0,0,0,0,0,0,0,0,0,0,0,0,0,0,0,0,0,0,0,0,0,0,0,0,0,0,0,0,0,0,0,0,0,0,0,0,0,0,0,0,0,0,0,0,0,0,0,0,0,0,0,0,0,0,0,0,0,0,0,0,0,0,0,0,0,0,0,0,0,0,0,0,0,0,0,0,0,0,0],"id":13,"left_children":[1,3,5,7,9,11,13,15,17,19,21,23,25,27,29,31,33,35,37,39,41,43,45,47,49,-1,-1,51,53,55,57,59,61,63,65,67,69,71,73,75,77,79,81,83,85,87,89,-1,91,93,95,97,99,101,103,105,107,109,111,-1,-1,-1,-1,-1,-1,-1,-1,-1,-1,-1,-1,-1,-1,-1,-1,-1,-1,-1,-1,-1,-1,-1,-1,-1,-1,-1,-1,-1,-1,-1,-1,-1,-1,-1,-1,-1,-1,-1,-1,-1,-1,-1,-1,-1,-1,-1,-1,-1,-1,-1,-1,-1,-1],"loss_changes":[6.300482E5,2.628195E5,2.9383916E5,4.8048047E4,4.3386E4,6.390362E5,1.3317264E5,3.7892734E4,2.8599674E4,4.1688773E4,3.892103E4,2.8074406E4,8.913875E3,5.5801617E4,2.0669969E4,1.8618305E4,2.7297016E4,1.56306875E4,3.4571363E4,1.4329766E4,1.8407102E4,2.468736E4,1.3953656E4,2.0331094E3,1.0695411E3,0E0,0E0,1.759546E4,1.520769E4,1.0140711E4,1.986436E4,2.0434956E2,1.0413984E3,8.045997E3,1.5233344E4,1.3381561E4,8.096699E3,4.0477555E4,1.4677779E4,9.873992E2,1.11095625E4,8.458586E3,7.136051E3,4.0008088E3,1.1724453E4,1.3920531E4,9.437844E3,0E0,1.8245703E2,4.1853027E1,1.9165337E1,8.304959E3,1.1131914E4,2.232943E3,1.8539312E4,6.745328E3,1.1317357E4,1.4928773E4,6.134797E3,0E0,0E0,0E0,0E0,0E0,0E0,0E0,0E0,0E0,0E0,0E0,0E0,0E0,0E0,0E0,0E0,0E0,0E0,0E0,0E0,0E0,0E0,0E0,0E0,0E0,0E0,0E0,0E0,0E0,0E0,0E0,0E0,0E0,0E0,0E0,0E0,0E0,0E0,0E0,0E0,0E0,0E0,0E0,0E0,0E0,0E0,0E0,0E0,0E0,0E0,0E0,0E0,0E0,0E0],"parents":[2147483647,0,0,1,1,2,2,3,3,4,4,5,5,6,6,7,7,8,8,9,9,10,10,11,11,12,12,13,13,14,14,15,15,16,16,17,17,18,18,19,19,20,20,21,21,22,22,23,23,24,24,27,27,28,28,29,29,30,30,31,31,32,32,33,33,34,34,35,35,36,36,37,37,38,38,39,39,40,40,41,41,42,42,43,43,44,44,45,45,46,46,48,48,49,49,50,50,51,51,52,52,53,53,54,54,55,55,56,56,57,57,58,58],"right_children":[2,4,6,8,10,12,14,16,18,20,22,24,26,28,30,32,34,36,38,40,42,44,46,48,50,-1,-1,52,54,56,58,60,62,64,66,68,70,72,74,76,78,80,82,84,86,88,90,-1,92,94,96,98,100,102,104,106,108,110,112,-1,-1,-1,-1,-1,-1,-1,-1,-1,-1,-1,-1,-1,-1,-1,-1,-1,-1,-1,-1,-1,-1,-1,-1,-1,-1,-1,-1,-1,-1,-1,-1,-1,-1,-1,-1,-1,-1,-1,-1,-1,-1,-1,-1,-1,-1,-1,-1,-1,-1,-1,-1,-1,-1],"split_conditions":[2.655E4,3.4686348E-1,-7.5E-1,2.0932E4,5.5787796E-1,8.3E-1,3.5156E4,1.12E1,4.788018E-1,2.2514E4,-3.9840108E-1,3.37919E-1,-2.603566E4,3.8745388E-1,3.98845E4,1E0,2.3616236E-1,1E0,-8.660254E-1,-9.5413923E-1,4.9815497E-1,4.1120267E-1,3.6999996E0,3.9346E4,3.15975E4,2.4298819E1,6.425232E0,2.9762E4,8.45E0,7.7E0,-7.247928E-1,-1.2479611E4,3E-2,2.471E1,8.080808E-1,2.0688742E-1,9.422609E-1,-2.5065252E-1,2.3343E4,-1.608783E4,5.1E1,3.3394414E-1,3.9435586E-1,4.694742E-1,-8.169699E-1,4.3852904E-1,1E1,1.2719598E0,8.1568426E-1,-1.829514E4,1.0140156E-1,-8.660254E-1,1.255E1,1.6E1,9.8E0,8.878852E-1,3.611E4,5.3E1,3.6431283E-1,3.6364967E-1,-1.9198698E-1,-3.4533794E0,-1.6710478E0,-1.0408904E-1,-9.6020263E-1,-1.026875E0,-3.3144646E0,-3.4912387E-1,-2.9095068E0,3.891851E-3,3.949057E-1,-2.2689357E0,-2.4997962E-1,-4.8039636E-1,-6.970202E-2,-3.6561996E-1,1.080672E0,-8.039219E-1,-2.1356924E0,-1.4928799E0,-1.1505931E-1,-8.467645E-1,-2.0860078E0,-9.858371E-1,1.158666E-1,-5.161583E-1,-1.8382151E0,-8.9033365E-1,-2.086438E0,1.9920026E-1,-2.2054179E0,4.8287935E0,1.852485E0,-1.9609146E-1,-8.5239214E-1,3.3683586E-1,3.8241006E-2,-1.3471876E-1,3.0235815E-1,5.13658E-1,1.326104E0,2.8363806E-1,-9.2548174E-1,-1.3768319E0,-2.737542E-1,7.195713E-1,1.4056479E0,5.697264E-1,4.50024E0,2.935558E0,8.9201945E-1,1.3023676E0,6.536431E-1],"split_indices":[0,17,27,0,18,9,0,27,18,0,33,18,2,17,0,30,17,21,37,36,17,16,24,0,0,0,0,0,27,28,35,2,12,22,5,16,33,36,0,2,21,19,35,19,33,16,26,0,4,2,16,37,28,26,27,33,0,21,16,0,0,0,0,0,0,0,0,0,0,0,0,0,0,0,0,0,0,0,0,0,0,0,0,0,0,0,0,0,0,0,0,0,0,0,0,0,0,0,0,0,0,0,0,0,0,0,0,0,0,0,0,0,0],"split_type":[0,0,0,0,0,0,0,0,0,0,0,0,0,0,0,0,0,0,0,0,0,0,0,0,0,0,0,0,0,0,0,0,0,0,0,0,0,0,0,0,0,0,0,0,0,0,0,0,0,0,0,0,0,0,0,0,0,0,0,0,0,0,0,0,0,0,0,0,0,0,0,0,0,0,0,0,0,0,0,0,0,0,0,0,0,0,0,0,0,0,0,0,0,0,0,0,0,0,0,0,0,0,0,0,0,0,0,0,0,0,0,0,0],"sum_hessian":[6.29E3,3.185E3,3.105E3,2.405E3,7.8E2,2E1,3.085E3,3.59E2,2.046E3,3.28E2,4.52E2,1.6E1,4E0,2.342E3,7.43E2,2.6E1,3.33E2,1.052E3,9.94E2,1E2,2.28E2,1.37E2,3.15E2,7E0,9E0,3E0,1E0,1.933E3,4.09E2,4.4E2,3.03E2,5E0,2.1E1,1.97E2,1.36E2,2.2E1,1.03E3,9.9E1,8.95E2,5E0,9.5E1,1.7E2,5.8E1,5.5E1,8.2E1,1.03E2,2.12E2,2E0,5E0,6E0,3E0,1.08E3,8.53E2,1.11E2,2.98E2,4.33E2,7E0,4.5E1,2.58E2,3E0,2E0,1.7E1,4E0,1.65E2,3.2E1,1.29E2,7E0,1.5E1,7E0,8.75E2,1.55E2,4.7E1,5.2E1,3.72E2,5.23E2,1E0,4E0,2.2E1,7.3E1,1.1E1,1.59E2,4.1E1,1.7E1,9E0,4.6E1,2.5E1,5.7E1,5.9E1,4.4E1,4E0,2.08E2,3E0,2E0,1E0,5E0,2E0,1E0,1.22E2,9.58E2,8.09E2,4.4E1,1.08E2,3E0,4.4E1,2.54E2,3.93E2,4E1,4E0,3E0,3.1E1,1.4E1,2.1E2,4.8E1],"tree_param":{"num_deleted":"0","num_feature":"45","num_nodes":"113","size_leaf_vector":"1"}},{"base_weights":[1.1495981E-1,-7.2109E0,1.2557294E1,-2.134916E0,-1.9280182E1,1.2252391E2,1.1461223E1,-8.585133E0,3.5116374E-1,-2.882822E1,-1.1834448E1,2.4145718E1,3.9723785E2,7.388943E0,2.0089113E1,-7.3620315E0,-3.785989E1,-1.799752E1,9.3110627E-1,-2.061412E1,-3.8301716E1,-7.8041E0,-2.5566212E1,5.7132233E1,-7.9567194E0,2.3387613E1,8.540301E0,9.03028E0,-1.4011179E0,1.7337883E1,2.8413435E1,-3.5697782E0,-1.4397366E1,-3.0240843E0,-1.5672433E1,-2.9292383E1,-1.2318523E0,-1.4879615E0,3.784572E0,-3.7787857E1,-1.4199198E1,-2.173029E1,-4.1640285E1,-1.5343971E1,-2.1992497E0,-5.4087353E0,-3.0560507E1,3.8145336E1,5.2256856E0,-1.5096093E1,6.5263653E0,1.2708307E1,7.2569094E0,3.4881694E0,-1.0708583E1,2.8367653E1,1.5681799E1,5.0461246E1,2.376052E1,-2.7011688E0,-1.3081682E-1,-5.2254117E-1,-1.6350883E0,-1.4783561E0,-1.8181907E-3,-2.1103842E0,-2.5297764E-1,6.089899E-1,-4.5242983E-1,3.6230188E-2,-2.5323644E-1,1.3615821E-1,4.8635808E-1,-2.3157635E0,-6.010856E-1,-4.9636436E-1,-1.660611E0,6.72428E-1,-1.3983501E0,-2.1168795E0,1.2945531E-1,-1.2669975E0,-2.3220351E-1,-9.487036E-1,2.502785E-3,-9.061481E-1,3.0639297E-1,3.575052E-1,-1.6841271E0,3.5399207E-1,2.078593E0,-1.911892E-1,-8.1687576E-1,3.728504E-2,4.102343E-1,2.7690544E0,5.8851665E-1,5.483335E-1,1.6461317E-1,2.6610348E-1,-2.8047094E-1,-1.2430352E0,-1.5361142E-1,1.2289511E0,4.3314815E0,7.2256047E-1,1.2130086E0,3.1247919E0,1.3099247E0,1.3773724E0,8.153843E-1],"categories":[],"categories_nodes":[],"categories_segments":[],"categories_sizes":[],"default_left":[0,0,0,0,0,0,0,0,0,0,0,0,0,0,0,0,0,0,0,0,0,0,0,0,0,0,0,0,0,0,0,0,0,0,0,0,0,0,0,0,0,0,0,0,0,0,0,0,0,0,0,0,0,0,0,0,0,0,0,0,0,0,0,0,0,0,0,0,0,0,0,0,0,0,0,0,0,0,0,0,0,0,0,0,0,0,0,0,0,0,0,0,0,0,0,0,0,0,0,0,0,0,0,0,0,0,0,0,0,0,0],"id":14,"left_children":[1,3,5,7,9,11,13,15,17,19,21,23,25,27,29,31,33,35,37,39,41,43,45,47,49,-1,-1,51,53,55,57,59,61,-1,63,65,67,69,71,73,75,77,79,81,83,85,87,89,-1,91,93,95,97,99,101,103,105,107,109,-1,-1,-1,-1,-1,-1,-1,-1,-1,-1,-1,-1,-1,-1,-1,-1,-1,-1,-1,-1,-1,-1,-1,-1,-1,-1,-1,-1,-1,-1,-1,-1,-1,-1,-1,-1,-1,-1,-1,-1,-1,-1,-1,-1,-1,-1,-1,-1,-1,-1,-1,-1],"loss_changes":[5.7579894E5,2.4354244E5,2.8075938E5,4.490312E4,8.333428E4,6.1200325E5,8.133006E4,2.7614133E4,2.1533229E4,3.9285812E4,3.6493414E4,1.951564E4,1.59053125E4,2.2764742E4,1.6523656E4,1.9931754E4,1.4611629E4,1.1704605E4,1.3541878E4,3.0090195E4,1.22624375E4,2.1687818E4,1.493557E4,4.1099355E3,1.1325242E3,0E0,0E0,8.57618E3,1.1368564E4,9.8025E3,1.7574344E4,2.3333688E4,1.8584883E4,0E0,3.692316E3,1.1366494E4,2.835932E3,8.408158E3,5.6502695E3,1.5922102E4,1.6239574E4,9.590932E3,6.185375E3,2.3305676E4,1.116953E4,4.6580996E3,1.4368891E4,5.57251E2,0E0,3.548462E1,3.2688995E1,1.659936E4,1.3186285E4,2.766041E3,9.217696E3,1.3763508E4,4.822078E3,7.4144688E3,3.8689375E3,0E0,0E0,0E0,0E0,0E0,0E0,0E0,0E0,0E0,0E0,0E0,0E0,0E0,0E0,0E0,0E0,0E0,0E0,0E0,0E0,0E0,0E0,0E0,0E0,0E0,0E0,0E0,0E0,0E0,0E0,0E0,0E0,0E0,0E0,0E0,0E0,0E0,0E0,0E0,0E0,0E0,0E0,0E0,0E0,0E0,0E0,0E0,0E0,0E0,0E0,0E0,0E0],"parents":[2147483647,0,0,1,1,2,2,3,3,4,4,5,5,6,6,7,7,8,8,9,9,10,10,11,11,12,12,13,13,14,14,15,15,16,16,17,17,18,18,19,19,20,20,21,21,22,22,23,23,24,24,27,27,28,28,29,29,30,30,31,31,32,32,34,34,35,35,36,36,37,37,38,38,39,39,40,40,41,41,42,42,43,43,44,44,45,45,46,46,47,47,49,49,50,50,51,51,52,52,53,53,54,54,55,55,56,56,57,57,58,58],"right_children":[2,4,6,8,10,12,14,16,18,20,22,24,26,28,30,32,34,36,38,40,42,44,46,48,50,-1,-1,52,54,56,58,60,62,-1,64,66,68,70,72,74,76,78,80,82,84,86,88,90,-1,92,94,96,98,100,102,104,106,108,110,-1,-1,-1,-1,-1,-1,-1,-1,-1,-1,-1,-1,-1,-1,-1,-1,-1,-1,-1,-1,-1,-1,-1,-1,-1,-1,-1,-1,-1,-1,-1,-1,-1,-1,-1,-1,-1,-1,-1,-1,-1,-1,-1,-1,-1,-1,-1,-1,-1,-1,-1,-1],"split_conditions":[2.8237E4,3.2841325E-1,-7.5E-1,2.2514E4,2.37445E4,6.2E-1,3.5156E4,9.95919E-1,3.477401E-1,4.899999E0,4.9815497E-1,9.594095E-2,-2.603566E4,3.865807E-1,4.12515E4,5.693625E-1,2.11865E4,2.63055E4,2.5352E4,2.0788E4,4.788018E-1,-1.7495566E4,-8.82048E-1,8.8560894E-2,3.15975E4,2.3387613E1,8.540301E0,-8.169699E-1,1.3E1,1.0701107E-1,-7.247928E-1,9.45E0,4.899999E0,-3.0240843E0,2E0,6.936027E-1,1.4773485E-1,2.1771216E-1,9.790841E-1,-1.5046899E4,4.8899025E-1,3.6531365E-1,8.1783915E-1,2.6501E4,-8.9780456E-1,5.374385E-1,8.05E0,3.25125E4,5.2256856E0,-1.829514E4,3.46945E4,-9.990741E-1,4.848485E-1,8.629691E-1,-7.907757E-1,6.4983165E-1,7.30836E-1,4.2443237E-1,4.4038618E-1,-2.7011688E0,-1.3081682E-1,-5.2254117E-1,-1.6350883E0,-1.4783561E0,-1.8181907E-3,-2.1103842E0,-2.5297764E-1,6.089899E-1,-4.5242983E-1,3.6230188E-2,-2.5323644E-1,1.3615821E-1,4.8635808E-1,-2.3157635E0,-6.010856E-1,-4.9636436E-1,-1.660611E0,6.72428E-1,-1.3983501E0,-2.1168795E0,1.2945531E-1,-1.2669975E0,-2.3220351E-1,-9.487036E-1,2.502785E-3,-9.061481E-1,3.0639297E-1,3.575052E-1,-1.6841271E0,3.5399207E-1,2.078593E0,-1.911892E-1,-8.1687576E-1,3.728504E-2,4.102343E-1,2.7690544E0,5.8851665E-1,5.483335E-1,1.6461317E-1,2.6610348E-1,-2.8047094E-1,-1.2430352E0,-1.5361142E-1,1.2289511E0,4.3314815E0,7.2256047E-1,1.2130086E0,3.1247919E0,1.3099247E0,1.3773724E0,8.153843E-1],"split_indices":[0,17,27,0,0,9,0,43,19,24,17,17,2,16,0,18,0,0,0,0,18,2,44,17,0,0,0,33,26,17,35,27,24,0,21,5,16,17,33,2,16,17,18,0,35,19,27,0,0,2,0,44,5,4,35,5,33,18,18,0,0,0,0,0,0,0,0,0,0,0,0,0,0,0,0,0,0,0,0,0,0,0,0,0,0,0,0,0,0,0,0,0,0,0,0,0,0,0,0,0,0,0,0,0,0,0,0,0,0,0,0],"split_type":[0,0,0,0,0,0,0,0,0,0,0,0,0,0,0,0,0,0,0,0,0,0,0,0,0,0,0,0,0,0,0,0,0,0,0,0,0,0,0,0,0,0,0,0,0,0,0,0,0,0,0,0,0,0,0,0,0,0,0,0,0,0,0,0,0,0,0,0,0,0,0,0,0,0,0,0,0,0,0,0,0,0,0,0,0,0,0,0,0,0,0,0,0,0,0,0,0,0,0,0,0,0,0,0,0,0,0,0,0,0,0],"sum_hessian":[6.315E3,3.975E3,2.34E3,2.799E3,1.176E3,2.2E1,2.318E3,7.78E2,2.021E3,5.14E2,6.62E2,1.7E1,5E0,1.576E3,7.42E2,7.48E2,3E1,6.1E1,1.96E3,2.77E2,2.37E2,5.13E2,1.49E2,8E0,9E0,3E0,2E0,1.328E3,2.48E2,5.6E2,1.82E2,4.87E2,2.61E2,1.4E1,1.6E1,3.6E1,2.5E1,1.061E3,8.99E2,7.4E1,2.03E2,4.1E1,1.96E2,2.18E2,2.95E2,3E1,1.19E2,7E0,1E0,6E0,3E0,4.3E2,8.98E2,1.63E2,8.5E1,7.1E1,4.89E2,3E1,1.52E2,8E0,4.79E2,2.16E2,4.5E1,8E0,8E0,2.3E1,1.3E1,9E0,1.6E1,6.56E2,4.05E2,7.64E2,1.35E2,5.5E1,1.9E1,1.67E2,3.6E1,6E0,3.5E1,1.93E2,3E0,1.12E2,1.06E2,3.4E1,2.61E2,1.4E1,1.6E1,9E0,1.1E2,1E0,6E0,1E0,5E0,1E0,2E0,8E0,4.22E2,4.63E2,4.35E2,1.36E2,2.7E1,2.9E1,5.6E1,6.8E1,3E0,4.3E2,5.9E1,1.9E1,1.1E1,9.9E1,5.3E1],"tree_param":{"num_deleted":"0","num_feature":"45","num_nodes":"111","size_leaf_vector":"1"}},{"base_weights":[2.8100502E-2,-6.1516643E0,1.3772136E1,-2.0827637E0,-1.8062435E1,1.4569272E2,1.2333323E1,-5.6855483E0,2.9899623E0,-2.5473375E1,-7.813754E0,1.797811E1,3.9855365E2,9.298092E0,2.2685928E1,-1.32298E1,-3.8168273E0,3.4417608E0,-1.3099162E1,-1.4227427E1,-3.0641258E1,-5.522281E0,-2.6768364E1,-9.42498E0,4.3133934E1,2.2945381E1,8.255625E0,1.1090296E1,1.2155275E0,3.649424E1,2.0004986E1,-1.1217182E1,-6.091901E1,3.2776368E-1,-8.000176E0,5.649349E0,1.0899186E0,-3.7287487E1,-1.4315064E0,-1.909644E0,-2.5158886E1,-1.8819801E1,-3.453652E1,-1.9298342E1,-2.2956405E0,-5.5160522E-3,-3.0417719E1,-1.3636754E1,1.0701128E-1,4.7067586E-1,2.3303175E0,3.4077026E1,1.0680834E1,3.6967304E0,-1.1438049E1,5.388326E1,1.6497534E1,1.2493074E1,2.3065498E1,-2.6184794E-1,-1.0222719E0,-3.606346E0,-1.6042999E0,-1.5024289E0,4.670226E-2,-1.5007135E0,-2.8389987E-1,6.750496E-1,2.2938703E-1,4.180479E-1,-1.5845307E-3,-1.1500673E0,-2.2102983E0,2.377348E-1,-5.9024495E-1,-9.917471E-3,-2.082383E0,-8.4073305E-1,-2.1806748E0,-3.9540425E-1,-1.4697725E0,-1.3739139E0,-1.9842018E0,-6.399364E-1,-1.8320099E0,-4.7612238E-1,1.2373372E-1,-3.1213403E-1,5.195798E-1,-1.2191678E0,-2.315207E0,-1.8640938E-1,-7.436415E-1,1.1104436E-1,2.6754985E0,1.319151E-1,5.80419E-1,4.9058184E-2,5.497708E-1,-1.2366511E-1,-1.3766036E0,2.8819234E0,9.161108E-1,9.6918315E-1,2.3473254E-1,1.0380081E0,4.0658838E-1,1.3384274E0,7.400751E-1],"categories":[],"categories_nodes":[],"categories_segments":[],"categories_sizes":[],"default_left":[0,0,0,0,0,0,0,0,0,0,0,0,0,0,0,0,0,0,0,0,0,0,0,0,0,0,0,0,0,0,0,0,0,0,0,0,0,0,0,0,0,0,0,0,0,0,0,0,0,0,0,0,0,0,0,0,0,0,0,0,0,0,0,0,0,0,0,0,0,0,0,0,0,0,0,0,0,0,0,0,0,0,0,0,0,0,0,0,0,0,0,0,0,0,0,0,0,0,0,0,0,0,0,0,0,0,0,0,0],"id":15,"left_children":[1,3,5,7,9,11,13,15,17,19,21,23,25,27,29,31,33,35,37,39,41,43,45,47,49,-1,-1,51,53,55,57,59,61,63,65,67,69,71,73,75,77,79,81,83,85,87,89,91,-1,-1,-1,93,95,97,99,101,103,105,107,-1,-1,-1,-1,-1,-1,-1,-1,-1,-1,-1,-1,-1,-1,-1,-1,-1,-1,-1,-1,-1,-1,-1,-1,-1,-1,-1,-1,-1,-1,-1,-1,-1,-1,-1,-1,-1,-1,-1,-1,-1,-1,-1,-1,-1,-1,-1,-1,-1,-1],"loss_changes":[5.353445E5,2.1068278E5,3.6928E5,5.9267594E4,8.388022E4,6.710095E5,6.0591688E4,2.6679512E4,9.836482E3,3.6875656E4,2.009241E4,1.0746747E4,2.285225E4,2.168596E4,1.5484375E4,3.5405203E4,2.6374129E4,6.800424E3,1.0388801E4,2.7420832E4,1.9564938E4,1.8491512E4,4.8831875E3,4.1886584E2,4.9800098E2,0E0,0E0,1.1175391E4,8.613416E3,2.3451688E4,8.195266E3,1.9870633E4,2.5331055E3,1.4116775E4,3.852792E4,5.5727754E3,5.187013E3,1.6926367E2,1.7245983E3,6.588073E3,1.58975E4,1.2576766E4,1.08629375E4,8.435568E3,1.1710301E4,5.18811E2,3.0889844E3,1.803772E1,0E0,0E0,0E0,1.2881389E4,8.965922E3,4.5280063E3,6.424452E3,3.884875E3,1.0671992E3,3.761211E3,7.5909062E3,0E0,0E0,0E0,0E0,0E0,0E0,0E0,0E0,0E0,0E0,0E0,0E0,0E0,0E0,0E0,0E0,0E0,0E0,0E0,0E0,0E0,0E0,0E0,0E0,0E0,0E0,0E0,0E0,0E0,0E0,0E0,0E0,0E0,0E0,0E0,0E0,0E0,0E0,0E0,0E0,0E0,0E0,0E0,0E0,0E0,0E0,0E0,0E0,0E0,0E0],"parents":[2147483647,0,0,1,1,2,2,3,3,4,4,5,5,6,6,7,7,8,8,9,9,10,10,11,11,12,12,13,13,14,14,15,15,16,16,17,17,18,18,19,19,20,20,21,21,22,22,23,23,24,24,27,27,28,28,29,29,30,30,31,31,32,32,33,33,34,34,35,35,36,36,37,37,38,38,39,39,40,40,41,41,42,42,43,43,44,44,45,45,46,46,47,47,51,51,52,52,53,53,54,54,55,55,56,56,57,57,58,58],"right_children":[2,4,6,8,10,12,14,16,18,20,22,24,26,28,30,32,34,36,38,40,42,44,46,48,50,-1,-1,52,54,56,58,60,62,64,66,68,70,72,74,76,78,80,82,84,86,88,90,92,-1,-1,-1,94,96,98,100,102,104,106,108,-1,-1,-1,-1,-1,-1,-1,-1,-1,-1,-1,-1,-1,-1,-1,-1,-1,-1,-1,-1,-1,-1,-1,-1,-1,-1,-1,-1,-1,-1,-1,-1,-1,-1,-1,-1,-1,-1,-1,-1,-1,-1,-1,-1,-1,-1,-1,-1,-1,-1],"split_conditions":[2.9174E4,3.4489048E-1,-7.5E-1,2.5086E4,2.5186E4,8.3E-1,3.834E4,2.1006E4,1.4E1,4.84805E-1,5.4900944E-1,9E-2,-2.603566E4,6.964277E-1,-7.247928E-1,9.8867756E-1,4.7708467E-1,4.602075E-1,